217 200
儿 0.142088 0.814220 -0.286190 -0.346429 0.245329 -0.193950 0.237952 0.415470 0.251708 -0.222676 -0.767654 0.380653 -0.206512 0.153152 0.056147 0.564730 0.358093 0.041820 0.057182 -0.251989 0.053106 0.613699 0.676712 0.679627 -0.077558 -0.599945 0.773296 0.344341 0.534229 0.577153 1.103377 0.516468 0.089468 -0.201403 0.166192 -0.494225 0.502532 -0.618435 0.030465 -0.428515 -0.593864 -0.398535 -0.076634 -0.598596 -0.641322 0.727397 0.173433 0.034403 -0.062341 0.036645 0.501681 0.017324 -0.903831 -0.995903 -0.523704 0.739767 -0.148708 -0.030855 0.449663 -0.061537 0.651082 -0.232280 -0.708911 -0.184201 0.356553 0.119930 -0.313354 -0.421524 -0.269791 -0.385068 -0.116289 -0.168583 -0.267345 -0.387403 -0.224428 -0.426556 -0.046631 -0.088988 0.313299 -0.492496 -1.067547 -0.416324 -0.698510 0.273260 -0.562076 -0.478391 0.260865 0.559362 0.222473 -0.036781 0.505914 -0.303173 -0.226522 -0.043790 0.394950 -0.575496 -0.016343 0.045987 0.403257 -0.763311 0.908521 -0.373834 0.206979 0.484957 -0.063778 0.057812 1.204127 0.592498 -0.040573 -0.165330 -0.221431 0.077773 0.143468 -0.177817 0.318519 0.168421 0.093365 -0.761861 -0.145878 0.091671 0.739323 -0.007515 0.326252 -0.522118 -0.030272 -0.169007 0.764959 0.089999 0.314676 -0.579126 -0.121866 -0.055719 -0.195391 0.114700 -0.039647 -0.144326 0.244566 -0.357494 -0.402359 0.413226 -0.130523 0.039483 0.249644 -0.236449 0.549384 -0.337406 0.218137 0.035272 -0.801698 0.236389 -0.427356 -0.653391 0.596535 -0.194938 0.493605 0.148429 0.052090 0.218044 0.114614 -1.398054 -0.520461 -0.039541 0.396146 0.223477 -0.276697 0.240398 -0.213607 0.331321 -0.339859 0.060051 -0.040619 0.337463 -0.834693 -0.731489 0.453377 -0.550544 -0.652083 0.578940 -0.374074 -0.244523 0.405980 -0.087927 -0.171913 -0.290121 0.429377 1.147244 0.588085 -0.075877 -0.388975 0.583356 -0.022857 -0.683441 -0.622660 -0.079834 0.247304 0.361437 0.129257 1.286895 -0.797868 0.887743 
鹿 0.046816 0.264708 1.330161 0.978242 -0.667184 0.871929 -0.067876 0.238706 -0.802447 -0.977283 -0.500507 -0.404630 0.019001 0.975611 -0.006002 -0.004178 0.686410 -0.267044 0.704194 -0.198455 -0.580434 0.095219 -0.226023 -0.079055 1.032687 -0.569686 0.217035 0.221697 0.224944 0.184769 -0.648516 0.436112 0.339413 0.309007 0.884727 1.303397 -0.586083 0.198250 1.108169 1.575923 -0.376706 0.523795 -0.348189 -0.886272 -0.086574 -0.130761 0.798440 0.969614 0.795454 0.190714 0.523706 -0.125737 -0.261039 -0.305853 -0.461534 0.623969 1.288954 -0.299912 0.054217 -0.252344 0.253181 -0.357949 0.712083 -0.049037 -0.527698 0.046597 1.174724 -0.895094 0.174668 0.278687 -0.227724 0.139196 1.003330 -0.328736 -1.094771 -0.144569 0.294182 0.373814 0.255119 0.355617 0.807495 0.965172 -0.693097 0.393793 0.091280 -0.446711 0.755971 -0.660497 -0.469402 -0.274823 0.711650 -1.367048 -0.578669 0.158981 -0.045028 -0.114739 0.651698 0.417228 0.243405 0.484855 0.275804 -0.846628 -1.002045 -0.381997 -0.578895 1.170541 0.314936 -0.068190 1.565757 1.078624 0.182030 1.551838 -0.343134 1.346696 0.680989 -0.430742 -1.363302 0.041922 0.298235 -0.307770 -1.847927 -0.461287 -0.087346 1.650296 -0.425523 -1.666682 -0.823984 -0.709879 1.304111 -0.805984 -0.569180 -0.395487 0.194532 0.968883 -0.455238 -0.636695 0.073846 -0.362707 -0.456162 -0.422684 -1.011681 0.432566 0.298071 -1.253864 0.327696 -0.006771 -1.271005 -0.350360 0.508029 1.026554 0.756871 -0.253879 0.495361 0.039611 0.419439 1.174760 1.060138 0.672497 -0.606867 0.218148 0.235870 -0.663858 -0.160908 -1.231765 0.823458 1.395827 1.422639 0.241000 0.578000 -1.307390 0.477020 -0.233236 0.141824 1.667063 0.216100 -0.987688 0.161939 -0.192547 0.608357 0.542207 0.083630 0.249396 0.529001 0.220789 -1.424695 1.085447 -0.348681 0.819250 0.196329 -0.737903 0.541500 -0.929885 1.063404 -0.101614 -1.199334 0.248604 0.413657 -0.982668 -0.068039 -0.343943 
鹵 0.000255 -0.000647 -0.001836 0.000501 -0.000515 0.002103 -0.001131 -0.001403 -0.001541 0.000448 -0.001929 0.001466 0.002313 -0.000828 -0.000969 0.000681 -0.000417 0.000550 -0.000170 0.001954 -0.000298 0.001501 0.001423 0.001687 0.001117 -0.001667 0.000032 0.002223 0.001039 -0.002199 -0.000255 0.000120 -0.001263 0.001731 0.000113 0.002149 0.001936 0.001668 -0.001855 0.001331 -0.001194 -0.000342 -0.000030 0.000770 0.000449 -0.002040 0.001986 0.001125 -0.001645 -0.000076 -0.000512 -0.001243 -0.001996 -0.000631 -0.000100 -0.000249 -0.001073 0.000810 0.002189 -0.001875 -0.000087 -0.002134 0.000215 -0.001448 0.002175 -0.001728 -0.001759 0.001278 0.000003 0.001827 0.002290 -0.000254 -0.000266 -0.000638 0.000957 0.000492 -0.000092 -0.001925 -0.000931 -0.000757 0.001944 0.000976 -0.000713 -0.002159 0.001486 0.001999 -0.000539 0.000207 0.002311 -0.000045 -0.000900 -0.000325 -0.001496 0.000957 0.002323 -0.002199 -0.001475 -0.001574 -0.001452 -0.002287 -0.001750 -0.001732 0.002052 0.000568 -0.001768 0.001364 0.001105 0.000581 -0.002336 0.000573 -0.000801 -0.000914 -0.000097 0.002393 -0.000113 -0.000185 -0.000800 -0.001423 -0.000942 0.000453 -0.001727 -0.000979 -0.001435 -0.002290 0.000642 0.000885 0.000161 -0.001960 -0.002354 -0.001350 -0.001908 0.001614 -0.000387 -0.002054 0.001588 0.000058 0.001250 0.000673 0.001157 -0.001686 -0.002355 0.002135 -0.001847 -0.001526 -0.002253 -0.002460 0.002187 0.001856 0.000915 -0.002194 -0.001269 -0.000841 -0.001616 0.002417 0.002205 -0.001316 -0.000445 -0.001761 -0.002281 -0.002427 -0.000169 0.001619 -0.001854 0.001136 0.002376 0.000423 0.001272 0.001418 0.000761 0.001584 0.001134 -0.000508 0.000620 -0.001689 -0.002342 0.002482 -0.002491 -0.000880 0.001226 -0.000119 -0.000063 0.001188 0.002470 0.001523 -0.001115 -0.002378 0.001875 0.001237 0.001835 0.002241 -0.001971 -0.001535 -0.000874 0.002274 0.002470 -0.000640 -0.000963 0.001589 -0.001124 -0.002483 
丶 0.193402 0.382271 -0.431019 -0.692242 -0.139356 -0.066215 0.490446 -0.043806 -0.181102 0.234178 0.179646 0.726091 -0.438814 0.107392 0.355071 0.009115 -0.037784 0.585715 -0.010589 -0.124379 -0.493309 0.004378 -0.580245 -0.323688 -0.039505 -0.549553 -0.152223 -0.294632 0.171047 -0.119587 0.082229 0.548370 -0.085055 0.548090 0.318135 -0.129228 0.238193 0.398657 -0.000882 0.495439 -0.724556 -0.316510 0.567479 0.105775 0.417065 0.884015 -0.240265 -0.467079 -0.317015 0.626110 0.139556 -0.167773 0.135250 -0.397206 0.383331 0.387418 0.217703 -0.432922 0.151966 -0.488641 0.152541 0.174045 -0.381080 -0.212618 0.098878 -0.183717 -0.222821 0.008619 -0.154701 0.186232 0.118265 -0.424370 0.437878 0.264295 -0.506145 -0.063342 -0.338731 -0.259967 0.434712 0.721008 0.629820 0.516450 0.151730 0.318917 0.253952 -0.615325 0.330125 -0.086562 0.642061 -0.225773 0.819855 0.528337 0.427144 0.116677 0.144055 0.053468 -0.514748 -0.124742 -0.099852 0.036394 0.246710 -0.078045 0.614322 -0.183294 0.315611 0.079955 0.271195 -0.089015 -0.299744 0.157599 -0.140352 -0.495826 0.043722 0.066546 -0.166294 0.022574 0.044085 -0.014866 -0.064666 0.175176 0.618548 0.045408 -0.233021 0.431480 0.471875 -0.581803 -0.329258 0.543395 -0.054484 0.571015 0.306832 0.081338 0.073037 0.251801 -0.233518 0.274476 0.131445 -0.012352 0.198139 -0.124313 -0.277357 -0.243897 0.026680 0.290476 -0.240586 0.144284 -0.556270 0.163227 0.350113 -0.404894 0.042109 -0.384110 0.438628 -0.421745 -0.482450 0.488973 -0.087731 -0.259591 0.012479 0.288060 0.105082 0.192636 0.323754 -0.117060 0.015720 0.319893 -0.491943 -0.419835 -0.047355 0.329395 0.426188 -0.204024 -0.195569 0.367846 0.369041 0.023729 -0.755481 -0.073410 -0.128126 0.084403 -0.001667 -0.095512 -0.281315 0.050074 0.078068 0.046861 -0.511762 -0.357242 -0.380601 -0.262929 0.049064 -0.373749 -0.399572 -0.224828 0.284040 -0.225277 0.210646 -0.528494 0.349649 -0.320517 
車 -0.694509 0.477000 0.088564 -0.373195 -0.190756 -0.468522 0.774332 -0.034154 0.733044 0.440914 0.214272 -0.494944 -0.311039 -0.816916 0.273338 -0.324958 -0.407513 0.061128 -0.237711 -0.166249 -0.698536 0.446135 -0.097221 0.619071 0.818991 0.099096 -0.019827 -0.874545 -0.293866 0.582086 0.446652 -0.372803 0.639109 -0.692477 0.250739 -0.294487 -0.288208 -0.023034 -0.038199 -0.040204 -0.673174 -0.105815 -0.472610 -0.752802 -0.300561 0.046166 0.048720 -0.911358 -0.362686 -0.192395 0.796696 0.458063 -0.634355 -0.682839 -0.632342 -0.755449 -0.248819 0.411759 -0.152404 -0.169410 0.255318 -0.820090 0.204037 -0.028707 -1.495869 -0.533426 0.583562 0.141432 -0.705146 0.150779 0.753385 0.718235 -0.192582 0.022648 -1.097223 -0.333622 -0.321961 0.421139 0.593301 -0.613808 -0.144087 0.671194 -0.151923 0.304157 -0.194275 -0.250024 0.108401 0.440489 0.324477 -0.390417 0.116015 -0.084547 0.012843 -0.039383 -0.052997 -0.308298 0.315265 0.334310 -1.127502 -0.551637 -0.094475 -1.187698 -0.513156 -0.367601 0.214945 0.180176 -0.543287 0.347715 -0.593912 0.572886 -0.493011 0.219901 -0.067689 1.021212 -1.388731 0.080024 -0.010489 0.021014 0.422605 0.359499 -0.229026 -0.170296 -0.211951 0.495559 -0.140771 0.626723 0.434676 0.446699 -0.931916 0.517394 -0.503587 1.051871 0.852305 0.159410 0.038122 0.041859 -0.253852 0.107771 -0.733597 -0.631869 0.250176 0.618480 0.227655 0.389231 -0.749616 0.025293 -1.173495 0.026990 0.503842 -0.017567 0.516867 -0.034425 -0.799403 1.407138 0.370402 -0.601388 -0.262997 -0.941343 -0.617781 0.269872 0.215447 -0.036444 0.206803 -0.183062 0.181575 -0.386894 1.393199 0.314333 -0.561751 -0.722243 0.462362 0.379139 -0.357747 -0.485386 -0.183062 0.155323 0.210860 -0.195672 0.009874 0.146677 -0.321371 -0.798659 0.079671 0.396861 0.152439 0.274821 0.700998 -0.022835 0.093606 -0.142968 -0.199362 0.655851 0.619689 -0.507857 0.070387 0.453827 -0.271370 0.319941 0.198204 0.370913 
手 0.192626 0.185917 -0.174729 0.402935 -0.058253 -0.030726 0.005650 0.374969 0.049663 0.048690 -0.253124 0.121290 0.408702 -0.154142 0.100849 0.113377 0.095207 0.124747 -0.426334 0.125895 -0.175128 -0.009316 -0.008205 -0.230216 -0.105520 -0.049060 0.108160 -0.531490 -0.269238 0.156416 0.277262 -0.071590 -0.415397 -0.201607 -0.503182 -0.174315 -0.186992 -0.022815 -0.541254 0.019459 0.146446 -0.430931 -0.011871 -0.024635 -0.165331 0.192355 -0.266119 -0.224285 0.157674 0.119408 0.087665 0.376925 -0.243370 -0.110010 0.071288 -0.181609 0.058034 -0.206432 0.160176 -0.218006 -0.356790 -0.248492 0.003233 0.292152 0.088642 0.278304 -0.319862 -0.357735 -0.116288 0.060687 0.248925 -0.044025 0.050169 -0.233511 0.367770 0.649509 -0.025967 -0.173569 -0.426092 -0.129600 -0.410533 -0.406582 -0.136943 0.248643 0.055181 0.238250 0.123553 0.320504 0.125434 -0.148194 -0.127935 0.658750 -0.452912 0.223794 0.019378 0.206024 0.310245 -0.229097 -0.357783 -0.424106 0.567930 0.029916 -0.367494 0.017694 0.287092 -0.229787 -0.099521 0.131060 0.093310 0.072965 -0.300896 -0.090502 -0.047173 -0.111953 0.297184 -0.351851 0.404159 0.212488 0.152808 -0.161384 -0.178856 0.104581 -0.062755 0.277644 -0.282942 -0.109893 -0.416827 0.085923 0.244058 0.076063 -0.123095 -0.133054 -0.160363 0.284051 -0.352868 -0.178183 0.026209 -0.170060 -0.046395 0.053587 -0.319211 -0.326691 0.089569 0.229582 -0.045977 -0.339820 0.271786 -0.325597 0.443054 0.171221 -0.033441 -0.068986 -0.621826 -0.424119 0.191023 -0.027880 0.128437 0.005312 -0.161498 0.586275 0.252233 0.269557 -0.124267 -0.211128 0.253440 -0.238022 0.082156 0.312852 0.197062 -0.153157 0.257549 0.211346 0.320675 0.025145 -0.014735 0.343174 0.153665 0.474315 0.202662 0.404716 0.185645 -0.167015 -0.096332 -0.217836 0.115839 0.186782 -0.608620 -0.345978 -0.633441 0.048153 -0.203218 0.118941 -0.503408 -0.364421 0.055640 0.554585 0.112523 -0.030623 0.130557 -0.023429 
士 0.090180 1.149188 -0.065997 -0.046682 -0.084107 -0.016312 1.507780 -0.121943 -0.697771 -0.669245 -0.160718 -0.759254 0.042577 -0.782221 -0.805459 -0.351338 1.241398 -0.470007 -2.097430 -0.919699 -0.283848 -0.309267 -0.732731 0.059424 0.437292 -0.477788 0.969478 -0.058549 0.399423 0.498175 0.080753 0.361183 0.055396 0.543371 0.061076 0.173867 1.144958 -0.652485 -0.115710 0.299311 0.696498 0.527291 0.118950 -0.112490 0.503798 -0.564321 -1.919314 -0.920571 0.131939 -0.009110 0.499174 0.455883 0.053825 0.863978 -0.452215 -0.801472 -1.122783 -0.446597 0.036127 0.098421 0.078232 -0.066296 -0.788940 -0.153242 0.543919 -0.640588 0.819351 -1.548005 -0.675418 -0.277537 0.944945 0.636456 0.349627 -0.857260 -0.137943 0.000753 0.374297 1.683002 -0.181163 -0.635960 -1.307378 0.877838 -0.697523 -0.934965 -0.396374 0.816858 -1.372798 -0.005833 0.005334 0.932838 0.340804 -0.218588 -0.052652 -0.876185 0.344852 0.080071 -0.060780 -0.094417 0.066953 -0.677298 0.011686 -0.400462 0.550970 -0.588877 0.580231 0.002665 0.337493 -0.118169 0.938410 -0.899906 -0.019049 0.210003 -0.689501 -0.035551 -0.631410 -0.517972 0.162377 -1.476717 -0.511156 -0.934601 0.129158 -0.057152 -0.310468 -0.227490 -0.052237 -0.978566 0.249327 0.179261 -0.165992 -0.753319 0.409098 0.132087 -0.123750 0.354448 -0.387507 1.221679 -0.721463 0.632846 -0.102568 1.949714 -0.070526 -0.417735 -0.093066 0.365808 -0.210567 0.241023 0.270723 0.495385 1.765736 0.569035 -0.205636 0.043484 1.469498 -0.836049 1.028617 0.419603 0.316743 1.272879 -0.550033 0.478466 -0.132640 -0.510730 -1.057169 0.098857 -0.307876 0.127062 -0.845762 0.665317 0.465286 0.339188 2.027670 -0.985618 0.423985 0.640060 -0.475591 -0.594950 0.035353 -0.137477 -0.077419 -0.644649 -0.218908 0.553507 0.296223 -0.935783 0.792324 0.768509 0.240151 -0.132276 0.650517 -0.152207 -0.004965 0.669212 -0.019119 0.924131 0.019300 -0.212637 0.712845 -0.573074 1.204206 0.630968 
面 -0.251468 0.221677 -0.069803 0.892486 -0.839749 -0.651111 0.053716 0.026845 0.689405 0.578811 0.236370 0.513717 0.767423 0.138950 -0.058024 -1.164106 0.781655 -0.305050 0.097165 -0.054476 -0.049859 0.307349 -0.455729 0.869450 -1.036904 -0.477842 0.186837 -0.402161 -0.747634 0.347005 0.121135 -0.845605 0.203599 -0.181942 -0.544004 -0.047840 -0.779609 -0.397285 0.729477 -0.371754 -0.064976 -0.188011 0.089231 0.102855 0.134272 0.815007 0.386134 -0.351740 -1.260636 -1.079219 -0.305214 0.619412 0.510455 0.015345 0.604509 0.651599 -1.018382 -0.027117 0.754111 -0.133827 -0.422194 0.801473 1.381890 0.516476 -0.697289 0.323319 1.615204 0.083854 -0.675400 -1.264829 -0.255671 0.312168 -1.196395 0.251715 0.482316 0.382745 -0.349570 0.000983 0.519430 0.042914 -1.108179 0.076981 0.931934 0.010631 0.362850 0.165004 0.202155 1.295413 -0.721584 -0.245434 -0.145552 -0.895045 0.819141 1.428161 0.111905 0.121780 -0.764720 -0.271874 0.407212 0.167168 -0.152572 -0.626414 -0.406059 0.307473 0.245986 -0.842264 -0.100430 0.080382 -0.080142 0.204280 0.359218 -0.400223 0.029763 0.107893 -0.050879 0.157451 -0.310786 -0.251651 0.592713 -0.176411 -0.417394 0.173986 0.381977 -0.213997 0.253695 -0.316449 -2.384328 -0.937740 0.746316 0.275357 0.159506 -0.435661 0.907616 0.052990 -1.091691 -0.258965 0.090314 0.284901 0.783937 -0.113652 -0.322339 1.141956 -0.130739 0.976106 -0.690155 0.326871 -1.083865 0.480745 -0.294356 0.168509 -0.599461 1.159832 0.069609 -0.596078 0.368132 0.788432 -0.063752 -0.779183 -0.628448 0.125905 0.715648 0.136301 -0.312563 -0.464674 -0.043799 -1.520828 -0.554341 0.280080 -0.184602 0.291458 -0.689048 -0.093314 -0.569121 0.995869 -0.634755 0.409084 0.054551 0.507502 -0.679052 -0.926555 -0.878594 0.634126 -0.774305 1.315631 -0.280391 0.417881 0.478906 -0.200402 -0.329324 0.822960 0.016000 -0.440827 -0.294362 -0.067866 0.664638 1.460090 0.449960 0.008831 1.058233 1.056759 
十 0.573542 1.398921 0.137238 0.211537 -0.059646 0.966702 0.005928 -0.577979 0.169328 -0.158489 -0.040888 -0.217186 -0.226020 -0.282426 0.144961 0.611935 0.198176 0.427326 -0.670177 0.559648 -0.562677 -0.054777 -0.272297 -0.429061 0.104880 0.368923 1.691827 -0.233661 0.032983 0.104642 -0.097519 0.010789 -0.623632 0.536333 0.644546 0.301013 -0.526790 -0.100662 0.448692 0.361876 0.189451 0.014611 -0.979257 -0.047442 0.939387 0.559230 -0.090319 0.633757 0.378237 0.001762 0.633005 -0.735843 0.276385 -0.241877 0.022203 0.277687 -0.255490 0.435074 -0.388465 0.237464 -0.129881 0.315152 0.303389 -0.378797 -0.230803 -0.525635 0.187946 0.087352 -0.224345 -0.299794 0.196967 0.147692 0.556035 0.952992 0.343908 0.598565 0.486076 0.096643 -0.041855 -0.508693 -0.116505 -0.287429 -0.205890 -0.472674 -0.260731 0.033224 -0.251659 0.282894 -0.381650 -0.828312 -0.144542 0.109556 0.275291 -0.122101 -0.043260 0.070010 -0.078506 -0.291486 -0.445914 -0.159013 0.424486 0.008627 -0.673459 -0.189526 -0.274381 -0.174906 0.558865 -0.078014 -0.400959 0.356733 -0.076638 0.217699 -0.489205 -0.205171 -0.915154 0.031147 0.406673 1.097685 0.257056 0.247931 -0.215090 0.591683 0.215257 0.145230 0.212698 -0.099764 0.541417 -0.108306 -0.062741 0.337683 0.095566 0.098606 -0.341994 0.246062 0.097995 0.008938 -0.136688 -0.976500 -0.330449 -0.050391 -0.439928 0.485642 0.213773 0.018847 -0.855950 0.087051 0.308315 -0.303725 0.029360 0.235462 -0.076982 0.251083 -0.114961 0.343803 0.003997 -0.276070 0.637739 -0.033759 0.192170 0.110658 -0.451183 0.135379 0.479654 0.342496 -1.212938 0.621324 0.163053 -0.031962 -0.125661 0.393567 -1.145478 -0.570168 -0.290883 0.097445 0.721713 -0.349438 -0.243626 -0.376057 0.389415 0.596453 0.108864 -0.317993 -0.148170 -0.150749 -0.059470 0.188419 -0.046824 -0.627069 -0.156709 0.530016 -0.641866 -0.539571 -0.150658 0.646428 -0.476560 -0.356668 0.442284 -0.876225 0.001478 0.248890 
彐 -0.276718 -0.346480 0.520911 0.016974 -0.116092 -0.105531 -0.833708 0.269675 -0.319005 0.369409 -0.467976 0.241476 0.189110 -0.088959 0.739981 -0.595652 -0.686530 -0.191696 -0.512260 -0.113951 0.012528 -0.401017 -0.228657 -0.278765 -0.463620 -0.068381 0.380463 -0.604000 -0.018705 -0.426501 -0.626750 0.412951 0.541251 -0.486710 -0.436127 -0.147525 -0.032462 -0.081977 -0.189724 -0.524926 -0.524099 -0.133347 0.143874 -0.189758 0.311782 0.110349 0.210874 -0.049723 -0.106207 -0.067748 0.318145 -0.008947 -0.187427 -0.503235 -0.068076 0.437387 -0.182710 -0.334034 0.373078 0.050723 -0.041458 0.044983 -0.666406 -0.400842 -0.293270 -0.229086 0.572465 0.952000 0.058857 0.677832 0.929333 -0.769807 -0.246656 0.165213 -0.426604 -0.084066 0.529919 -0.084567 0.054884 -0.355709 -0.130173 0.085457 -0.569205 -0.361544 -0.909722 -0.087361 0.177515 -0.363858 0.336662 0.121044 0.207433 -0.235431 0.317541 0.436957 0.521159 -0.095735 -0.166702 -0.312810 0.314528 -0.378694 -0.141307 0.673844 -0.251876 0.008683 -0.146637 0.157720 -0.175165 0.000873 -0.493968 -0.161110 -0.344272 -0.078115 -0.171061 0.782770 -0.629226 0.432654 0.069729 -0.516795 -0.723353 0.070309 -0.124101 -0.125381 0.090646 -0.029226 0.695374 0.086191 0.289453 -0.232025 -0.722579 -0.219277 -0.079422 0.575916 -0.341947 0.704504 0.470565 -0.195942 0.454088 -0.012776 -0.737844 0.393312 -0.382270 -0.076321 -0.219538 -0.287444 -0.191544 0.257872 0.098758 0.920369 0.493742 0.391673 -0.559582 -0.119629 -0.138104 0.017086 0.268282 -0.489367 0.527671 0.248426 -0.202701 0.361977 0.554787 0.301472 0.158571 -0.352895 0.021704 -0.307449 -0.215455 -0.188507 0.244698 0.040284 0.330107 0.357340 -0.791425 -0.000758 0.666834 -0.139838 -0.248906 -0.375563 0.445833 0.544539 -0.659592 0.457963 0.764825 -0.418968 0.059293 0.785639 -0.685555 -0.610478 -0.537256 -0.090932 -0.766803 -0.114827 0.000964 -0.055640 0.634236 1.294571 0.327456 0.509532 0.727733 -0.736418 
鼓 -0.516616 0.385764 0.166333 0.091083 -0.693843 0.339623 0.275007 0.815308 -0.832737 -0.896155 0.020131 -0.204569 1.260935 -0.413547 2.255510 1.181893 -0.547848 -0.135872 -1.344203 -0.339875 0.901810 -0.480546 -1.039006 -0.462604 -0.424792 -1.329257 0.558391 -0.099999 0.443361 0.650115 1.135630 1.172673 -0.544886 0.607807 0.866865 0.652864 -0.970535 0.915179 0.539290 0.749315 -1.355574 0.066071 0.301758 0.054952 -0.173355 0.159544 -0.076662 -0.753202 0.152308 0.257960 -0.679805 0.400130 1.161424 0.037126 0.604377 0.250856 0.622870 -0.047034 0.245618 -0.784374 0.185156 -0.579243 -1.492041 0.336918 0.171814 0.187591 0.067066 -0.296207 -0.598343 0.152985 -0.268899 -0.584924 -0.532764 -0.634398 1.304577 -0.416533 -0.331595 0.884171 1.075441 0.891258 -0.926709 -0.400094 0.243843 0.315429 -0.405722 0.298964 0.309702 -0.119771 -1.840387 1.703566 0.843223 -0.210008 -0.557898 -1.663359 0.554773 1.468876 -0.438775 0.477637 0.132997 -0.270138 -0.189885 -0.141193 0.476138 -0.258260 -0.848537 -0.332871 -1.978596 0.462296 1.386433 0.464229 0.109073 -0.584134 0.664652 0.710333 -0.857976 0.298037 -0.089002 1.213006 -0.071035 0.545630 -0.947436 -0.192552 -1.004676 0.336138 -0.842004 -0.412263 -0.446123 1.924112 0.876711 0.348130 -0.138664 -0.740346 -1.143596 -1.242595 -0.846310 0.953723 0.691191 1.450308 1.263906 0.166534 -0.318854 1.085984 1.539855 1.108159 -0.752250 0.045040 -1.059679 -1.000692 0.158376 1.248372 -2.227405 1.197823 -0.837689 0.564801 0.434656 0.509336 -0.675169 0.184754 -0.843078 0.158122 -0.915121 0.897544 -0.496717 -0.326397 0.948286 0.878969 -0.438180 0.499146 0.514186 -0.110493 0.886674 0.908285 -1.182755 0.352471 0.515741 0.349462 1.131435 0.217585 1.053612 -0.467928 -1.236480 -0.460517 0.873376 0.571436 1.383248 0.980938 -0.402036 0.454381 -0.302161 0.126985 -0.186198 0.297042 0.447340 0.256458 -1.418265 -0.352792 -0.225448 0.542060 0.549323 1.028869 
气 0.633322 0.323260 0.897930 -0.994196 1.039708 -0.392375 -0.320101 0.340780 0.113361 0.109902 0.416133 -0.005510 -0.887506 -0.380602 0.122592 0.144654 0.611647 -0.879511 0.606930 -0.401646 0.047948 0.561186 -0.587009 -0.939283 0.983623 -0.940017 -0.078659 -0.791832 0.392805 -0.221141 0.024153 -2.268212 -0.499310 -1.901205 0.027091 -1.115094 -0.581604 0.815775 0.495780 -1.378822 0.484199 -1.224420 -0.710902 -0.829169 0.403837 -0.209053 -1.249937 -1.337767 -0.600342 0.743174 0.536164 -0.353055 0.447694 0.656146 0.289273 0.317412 0.727796 -0.053806 -0.257224 0.345592 0.168589 -0.751779 -1.128438 -0.869486 -0.846157 -1.960347 -0.647465 0.974280 -0.114940 -1.260005 0.151842 -0.547051 -0.404842 -0.053681 0.640254 1.041204 0.730644 -0.427466 0.565262 -1.114727 -0.241997 1.477721 0.775236 1.768156 -0.625942 0.197457 -0.424852 -0.342486 -0.733304 0.585945 1.506637 -0.861941 0.236506 0.646383 -0.205107 1.574184 0.526458 -0.205225 -0.129339 0.093851 -0.512684 -0.179490 0.273717 0.199430 1.089261 0.207324 -0.296461 -0.189810 0.140922 2.016120 0.441668 0.084325 -0.669981 0.342950 1.203638 -0.655680 0.208703 -1.428231 0.548702 -0.248890 -0.909869 -0.695761 -0.094600 0.512188 1.266091 -0.022108 0.213637 0.429370 0.429584 0.455424 -0.404510 0.326795 0.787920 -0.144744 -0.858832 -0.589134 -0.138928 0.698979 0.628912 -0.755752 0.381561 1.131801 -0.429323 0.817914 0.085435 0.191973 1.976170 -0.884546 -0.613523 -0.518062 0.359562 1.030530 1.115101 0.889602 0.755341 -1.317455 -1.149173 1.107904 -0.140499 -0.017138 0.433186 0.439146 -1.003541 -0.373033 0.101659 -0.175416 -1.028102 -0.006581 0.056449 0.505745 1.372029 -1.099936 -0.259074 -0.399353 -0.091604 0.520872 0.257568 -0.664080 0.601344 -0.845459 -0.344567 0.286275 -0.548101 0.128165 -1.231447 0.833067 -1.775090 0.531159 -1.015972 0.941682 -0.125017 0.083835 0.451930 0.666590 -1.014884 0.939078 0.332043 -0.246637 0.184738 0.423648 
里 0.311623 0.211657 0.411521 0.069213 -0.139552 -1.056118 -0.354335 0.126369 0.455812 0.159021 -0.394539 -0.560288 0.083339 -0.305026 -0.869774 0.217144 -0.124493 0.794791 1.037785 -0.522733 -1.098544 0.610078 0.392957 0.347151 0.213091 -0.770094 -0.303215 -0.740674 0.321933 -0.295767 0.241811 -0.534711 -0.445892 -0.107619 -0.527383 0.170501 -0.579932 -0.366246 0.533210 0.217877 0.148133 -0.238166 -0.581953 0.313724 -0.384256 0.257571 0.593471 -0.138209 0.014407 0.169303 -0.536209 0.598682 0.190562 0.837649 -0.301702 -0.555680 0.406062 -0.024195 -0.056077 0.795577 -0.184192 -0.154847 -0.121271 -0.246852 -1.079570 0.011091 -0.024793 0.627476 -0.226831 0.332592 0.401349 0.294889 0.602818 0.115853 0.082991 0.797774 -0.123193 0.435266 -0.325942 0.111337 -0.062264 0.005601 -1.194092 0.562274 0.477064 -0.073458 -0.216080 0.394956 0.364725 -0.548269 0.044335 0.028300 -0.073404 1.030534 0.275676 0.739886 -0.045933 -0.290115 0.652525 -0.228717 0.496905 0.287438 0.523107 0.293182 -0.201708 0.115884 -0.222490 -0.459829 -0.510732 -0.323596 0.080220 0.514781 -0.491145 -0.198054 -1.043161 0.175601 0.628676 -0.342511 0.081072 0.484617 -0.694976 0.171419 -0.029852 -0.242334 0.072607 0.545588 -0.814277 0.976504 0.071970 0.561397 0.051414 0.562098 0.074264 -0.232721 0.032263 -0.259230 0.389606 -0.342138 -0.258662 -0.304819 -0.467387 -0.207800 -0.790046 0.427929 -0.354626 0.039345 0.344610 1.015642 -0.973712 0.556356 -0.357244 -0.046800 0.509942 -0.130074 -0.303759 1.079980 -0.199919 -0.023915 0.357248 -0.209388 -0.543322 -0.536397 0.180491 0.163630 0.030100 0.094612 -0.553185 0.775624 0.712918 0.332792 0.038202 -0.073078 -0.354335 1.228397 -0.665620 -0.504190 0.369098 0.491742 -0.031925 -0.495039 0.401140 0.786736 -0.381528 0.937104 0.191292 0.211929 -0.425435 -0.473940 0.165137 0.355524 -0.015877 -0.253087 -0.362094 -0.189040 -0.424970 0.445561 0.325245 0.929357 0.481655 0.073628 
黑 1.943972 -0.535224 -0.734893 0.624584 0.532416 0.191264 -0.095446 0.314025 -1.084562 0.954351 -0.448090 0.196442 -0.483862 -0.170504 0.579818 -0.870918 0.486174 0.696170 -0.062790 -0.920955 -0.061124 -0.122228 -0.354258 -0.460966 0.457200 0.699814 1.128389 -0.818308 -0.837298 -0.542823 -0.411492 0.764542 0.049694 -2.104096 -0.359962 -0.670343 -1.562726 0.257084 0.366330 -0.779105 0.875967 -0.297524 0.590224 0.655911 -0.106482 -0.102433 -0.777850 -1.069379 0.391623 0.255624 0.106891 0.268524 -0.271957 1.204984 0.089865 -1.003437 -1.042054 1.431331 0.200826 0.171275 0.979148 0.418656 0.580817 -0.859949 -0.087123 -0.013624 -0.026206 0.752137 -0.108494 0.884674 0.974541 -0.212316 -0.832502 -0.017278 0.204247 0.655698 -0.104312 -0.262482 0.008148 -0.377021 0.210675 1.048588 -1.251654 -0.471980 0.446829 -0.856257 -0.335059 -1.253084 0.495061 0.635757 1.393713 0.531202 -0.747359 0.435007 -0.108145 -0.282984 0.884703 -0.141862 0.565324 -0.409457 -0.067409 -0.458695 0.231613 0.405350 0.403277 0.266051 0.589762 0.530434 -1.106110 -0.544638 0.634009 -0.718340 -1.326261 -0.107531 0.302019 0.487485 -0.570247 -0.244914 -0.023840 -0.598831 -0.480364 0.286087 1.116724 -0.847772 0.518096 -0.040120 -0.505846 -0.351226 0.478989 0.521845 0.803719 -0.939530 1.043059 0.160457 0.076094 -0.723193 -0.655749 -0.512435 -1.204835 -0.527757 0.697373 0.028099 -0.178378 -1.097270 -0.537693 -0.572888 -0.743611 0.591528 -0.307163 -0.145694 -0.810766 0.193239 0.907467 -0.480564 -0.639666 -1.617416 0.276093 0.331531 -1.171032 -0.958859 0.049112 0.313048 0.709378 0.928528 0.168321 -0.395087 -0.664425 0.892539 0.140510 0.571944 -0.388259 0.357130 0.732317 0.431250 -0.064519 0.255717 0.956841 -0.433388 0.418046 -0.042229 1.184426 0.878273 -0.472698 0.352719 0.736213 0.097046 0.124468 0.846139 -0.996342 -1.203416 -0.815879 -0.492702 -0.084348 0.978751 -0.104381 -0.069096 -0.128414 0.066379 -0.586785 -0.338842 
日 -0.370176 -0.374840 0.107046 0.052194 -0.333168 0.484865 0.264724 -0.133277 -0.338580 -0.214737 -0.464267 -0.381872 -0.494465 0.348713 -0.517503 -0.220945 0.316791 -0.065133 0.356335 -0.238618 0.011591 0.125343 0.356262 -0.100195 -0.289221 -0.023121 0.016600 -0.194790 -0.075873 -0.069622 0.394595 0.211093 0.022965 -0.090043 -0.345984 0.466241 0.393514 -0.158091 0.234446 -0.028426 0.040112 -0.217349 0.571556 0.062784 0.019824 -0.211382 -0.164562 0.664673 0.164645 -0.141731 0.081325 -0.233691 0.062048 -0.117542 0.383751 -0.061409 0.283328 0.220897 -0.145326 -0.085218 -0.071029 -0.009559 0.289140 -0.310957 -0.427287 -0.246096 -0.094068 -0.154834 0.318941 0.179779 0.464308 0.117660 0.157732 0.461617 -0.304593 0.001935 -0.019165 -0.215047 0.337145 -0.348792 -0.169248 -0.317911 0.064211 0.683488 -0.214831 0.118898 0.052143 0.279877 0.123330 -0.061275 0.072963 -0.079968 0.400798 0.207482 0.312625 -0.182374 0.245228 -0.665523 -0.168020 -0.053417 -0.410870 -0.339454 -0.173344 0.321629 0.439952 0.125263 0.308006 -0.148002 0.072430 -0.158897 -0.338123 0.148212 -0.248113 -0.080294 -0.103424 0.408934 -0.347417 0.199518 0.108255 -0.447386 -0.459847 0.423261 -0.349997 0.258376 0.063873 0.183216 -0.113992 -0.021715 0.106976 0.219607 0.597105 -0.115144 -0.237386 -0.053249 0.041798 0.002130 0.266459 0.009437 0.549727 0.302277 -0.039904 -0.166552 -0.021129 0.248961 -0.161350 -0.601348 -0.083838 -0.098848 0.223085 -0.507585 0.252135 -0.251438 -0.056152 -0.051356 0.077850 -0.306819 0.081618 0.230807 -0.005451 0.129977 -0.516380 -0.126284 0.153141 -0.170207 0.024069 -0.048206 0.283772 -0.111953 0.390458 -0.040327 0.392866 -0.327151 -0.138397 -0.061421 -0.098279 -0.522458 0.032010 -0.256285 -0.462420 -0.509459 0.068894 -0.174675 -0.641312 0.134274 -0.198894 0.354048 -0.190900 0.072124 -0.827480 0.205654 -0.210170 -0.348737 -0.269828 0.048854 -0.287038 0.297990 -0.499597 -0.101823 -0.216337 -0.256857 
夊 -0.201934 0.645551 -0.350690 1.022780 -0.016226 0.315454 -0.097544 0.643387 0.902041 -0.053130 -0.299335 -0.447251 -0.554289 -0.779049 -0.270228 0.534027 0.110185 0.800160 0.222879 -0.141598 -0.936635 0.027861 -0.212159 0.289905 -0.142246 -0.462217 0.820137 0.064905 -0.042560 0.571327 -0.417737 1.314900 -0.355717 -0.337440 0.483799 -0.255948 -0.770218 -1.188490 -0.960943 -0.130216 -0.153003 -0.008149 1.451618 -0.003846 0.078468 -0.715419 -0.754252 0.103823 1.055106 0.780859 -0.506817 -0.360693 -0.937500 0.101855 -0.011466 1.005356 0.411686 0.160252 -0.621611 -1.110466 -1.112961 -0.368842 1.322504 -0.029358 -0.337740 -1.228492 1.029109 -0.058961 0.093570 -0.165772 -0.465255 -0.472029 -0.510676 -0.565613 -0.805940 0.687934 0.640032 0.333888 -0.237746 -0.026974 1.096129 0.403843 -0.716781 -1.034047 -0.354054 0.349699 -0.263752 0.313179 -0.352727 -0.763979 0.111435 -0.781050 0.172990 -0.402118 0.654430 -0.444759 -0.966935 -0.742485 -0.464208 0.110004 0.331124 0.173113 -0.070049 0.230393 -0.608589 0.585402 -0.438694 0.781891 -0.497324 -0.486371 -0.972053 -0.016582 0.730217 -1.203633 0.255317 0.624034 0.268550 0.097612 -0.471354 0.157554 0.176224 -0.645534 0.214814 -0.269413 0.915606 0.170519 -0.678602 0.124206 -0.810985 0.309024 0.128611 0.778245 1.072069 0.048238 0.503755 1.329205 0.265322 1.019689 -0.421476 -0.238287 0.350877 -0.329620 -0.576568 0.671725 0.286042 -0.774923 1.161095 -0.129075 0.020375 -0.223694 -1.063911 -0.028360 0.036729 -0.314993 -1.293664 -0.095833 1.104683 0.038338 0.296530 -0.238270 0.095828 0.441425 0.226308 1.045643 -0.025130 0.507163 0.602123 0.140823 0.380366 0.060671 0.609239 0.252152 -0.036741 0.526715 -0.048247 0.401682 0.213972 0.000002 -0.039376 -0.820069 0.210452 -0.379447 -0.417646 -0.176616 -0.290980 0.195479 0.011857 0.494677 -0.514751 -0.681128 1.135809 -0.262520 2.021302 -0.775629 0.117712 -0.006406 -0.438204 0.716794 0.072464 0.313053 
殳 0.222830 0.462977 1.295868 0.705607 0.068870 0.668673 -0.237099 0.695891 -1.151598 -1.350608 -0.462177 0.264936 0.229445 0.195240 0.150901 0.052382 0.301262 -0.406612 -0.891839 1.145899 -0.231410 -0.513748 -1.468487 -0.275008 -0.345615 -0.100405 -0.289093 -0.181028 0.020863 -0.122424 1.424636 0.078012 0.412233 0.928567 0.595226 -0.884671 -0.161828 0.941651 -0.186596 -0.118709 -0.668666 0.023792 0.007649 -0.104863 0.515996 0.620750 0.216710 0.306914 0.384697 0.067534 -0.326098 0.234959 -0.249266 1.096758 1.155192 -0.494519 -1.503043 -0.306424 -0.589312 -1.030198 0.330564 0.229441 -0.687734 -0.582272 -0.730039 -0.253053 1.150028 0.929060 -1.240595 -0.938640 0.782795 0.190533 -0.886220 -0.541790 -0.636599 -0.773415 1.853828 -1.238923 1.103252 0.793404 0.749760 0.940103 -0.309223 0.249796 -0.857094 1.078798 -0.089848 0.421682 -0.320340 -0.291320 -0.531576 0.227352 -0.150139 -1.042700 0.123086 0.294031 0.383164 -0.019504 -0.083290 -0.382591 -0.277931 0.946133 -0.454608 0.334402 0.725516 -0.020355 0.581238 0.790856 0.492346 -0.111769 -0.188460 -0.291316 0.303903 -0.080273 -0.737171 -0.642512 -0.495074 0.848378 -0.020305 0.129473 -0.869856 -0.019912 0.944998 -0.656426 -0.149913 -0.379639 -0.408990 0.017683 -0.129906 1.299381 0.103410 0.496179 -0.901936 -0.522786 -0.565920 0.149808 0.076732 0.373332 0.155809 -0.165568 -0.305276 0.055098 -1.219820 0.277596 -0.757354 -0.447996 -0.250606 0.111137 -0.281115 0.285512 -0.110647 -0.707014 -0.891515 0.823790 0.173527 0.086308 -0.825792 1.598263 -0.572151 -0.850743 -0.200920 0.053139 0.233269 0.121050 0.046116 -0.428879 0.317461 -0.043287 -0.454557 -0.884869 0.946353 -0.899289 -0.553084 0.874678 -1.437107 -0.456182 0.049197 0.520302 0.356672 -0.493169 0.256444 -0.800212 -0.089780 0.048485 -1.007666 0.325842 -0.285076 0.645230 0.432432 0.420254 0.712908 -0.444196 0.723323 -0.039105 0.620083 -0.104958 -0.561601 1.151963 0.081464 -1.329674 
辵 0.230649 0.033656 0.074488 0.290874 -0.447416 0.159389 0.136717 -0.041977 -0.051386 -0.453272 -0.013682 -0.086955 0.407697 -0.346634 0.343516 0.073504 0.213596 0.171379 0.088323 0.619453 -0.547711 -0.204065 0.015327 -0.125529 -0.066871 -0.229775 -0.158031 0.184098 -0.090820 -0.187426 -0.215320 -0.081846 0.367291 0.190939 -0.393057 -0.330183 -0.292282 0.026642 0.279463 -0.401876 -0.124193 -0.433775 -0.226606 0.322567 -0.065947 0.151523 0.149847 -0.685050 0.050307 -0.297894 -0.111071 0.108529 -0.357796 0.050778 0.500220 -0.085213 0.062236 -0.320117 -0.000961 -0.051846 0.298276 -0.230917 0.032710 -0.247248 -0.239920 -0.595387 -0.129162 -0.322403 0.348621 0.080921 0.103146 -0.473893 0.051050 0.054579 -0.227113 0.444456 -0.205310 -0.348765 0.378610 -0.396199 0.087945 0.024382 -0.084945 -0.138370 0.002291 -0.359592 -0.224480 -0.042139 0.269608 -0.217653 -0.182869 -0.244935 -0.115452 -0.089065 -0.061489 -0.510122 0.369214 0.264640 0.349640 0.120730 0.242871 0.222245 0.379691 0.293725 0.129625 0.453863 0.175619 -0.445958 -0.272962 -0.320479 0.380281 -0.309433 0.046257 -0.147964 -0.253086 0.467374 0.087404 0.283390 0.028554 -0.464618 -0.061683 0.023168 -0.102708 0.018179 -0.216022 0.040811 -0.289100 -0.354955 0.140067 -0.473770 -0.043357 0.129375 -0.269185 0.099687 -0.034369 -0.206807 -0.403594 0.091194 -0.551125 -0.011700 0.174300 0.331396 -0.059474 0.190691 -0.160680 0.219736 0.221664 -0.520482 -0.432443 -0.505321 -0.280458 -0.440731 -0.135385 -0.249380 -0.049430 0.007042 -0.209496 0.031318 0.265794 0.436045 0.045583 0.178492 0.275323 -0.026454 -0.143981 -0.134024 0.289104 -0.143175 0.061993 0.015747 0.281336 -0.319746 0.209585 -0.079831 -0.246964 -0.090468 0.100763 -0.131931 0.092080 -0.191516 -0.132110 -0.003544 0.128255 -0.114953 -0.389269 0.257049 0.102083 -0.096108 0.102241 0.385073 0.294584 -0.222120 0.067329 0.368818 0.374579 -0.040430 0.083320 0.404297 0.424915 0.106137 
臣 0.939387 1.138395 -1.393248 0.755434 -0.683265 1.940865 -0.724564 0.528100 0.105605 -0.412551 0.383713 0.204539 1.145746 -0.833111 -0.486638 0.652724 0.321275 -1.583145 0.790773 1.145233 -0.397291 -1.651975 1.075702 0.613642 0.062244 0.672217 -0.037920 0.364880 0.382104 0.712944 -1.116934 0.441949 -0.278262 -1.264314 1.720482 -0.231680 0.731404 0.257974 -2.908350 -1.770805 -0.538943 0.928235 -0.543532 0.365897 -0.493256 0.247112 0.676376 -0.117483 0.192101 0.899423 -0.953044 0.415800 1.913883 1.134311 0.334556 -1.008120 -0.384599 0.241606 -1.126124 1.152480 -0.744175 -0.683714 -1.156572 -0.257448 0.377446 0.757681 1.872458 -1.729113 2.968083 0.137316 -1.051864 0.616395 -0.225194 -0.154387 -0.671882 -0.267824 -1.062208 0.066823 -0.811226 -0.001073 -0.664133 -0.382264 -0.386924 1.459066 -0.584644 -1.078337 1.734549 -1.202214 1.040471 -1.234593 -1.250276 -0.632597 0.755805 -1.455618 -1.473637 0.306010 0.733976 1.757623 -0.103031 -0.653289 -0.903734 -2.013915 -0.882621 -0.266058 0.254248 0.764872 0.956387 0.713078 -0.417987 1.553522 -1.104805 -0.821371 0.688608 1.971625 -1.836833 0.704770 0.640859 -0.759998 0.037162 -0.083002 0.216923 0.949614 0.069941 -0.508639 0.835780 -0.623768 0.531451 2.033132 -1.853040 1.619551 0.141760 -0.119263 -0.833913 -0.695473 0.180286 0.753384 2.644134 -0.896796 0.051120 1.272804 0.388335 0.873918 -0.006400 -1.024361 2.147526 0.915793 -1.029763 0.173798 0.180513 -1.093379 1.345131 -0.063259 0.813122 -1.427538 0.199910 0.980729 -0.210285 2.104768 -0.543816 -0.637537 0.817020 -2.983640 0.287522 -2.090542 -0.892139 0.969009 0.102283 0.957526 0.952811 -0.487081 -0.456198 2.122205 0.085056 0.582721 1.559595 0.126307 0.931668 0.005010 0.519351 -0.026290 -1.950682 1.018111 -1.173572 0.699583 -2.524615 1.347413 2.195446 -1.888290 -0.589013 -0.781295 0.097455 -2.230012 0.287531 -1.171112 -1.343120 0.570519 -1.236151 -1.367572 1.860439 -0.065403 
火 0.543387 0.079133 -0.169378 -0.621033 -0.247923 0.142396 -0.154271 0.212376 1.112071 -0.190434 0.014680 -0.100211 0.179888 -0.578179 -0.584435 -0.643295 -0.056343 -0.091080 0.642194 0.726300 -0.075463 -0.435817 0.497947 0.152684 0.222215 0.029665 -0.309554 -0.757737 0.181092 -0.023605 0.274194 -0.168421 -0.136280 -0.039607 0.218711 -0.011020 0.139715 -0.185182 0.241968 0.092147 0.166513 -0.304186 0.012424 0.090582 0.764188 -0.238792 -0.571413 -0.060346 0.085205 0.059187 -0.425280 -0.104756 -0.237717 0.597816 -0.375307 -0.962383 0.227717 -0.110657 0.473771 -0.437953 0.122099 -0.003688 0.289731 -0.451470 0.000409 -0.439828 0.518348 -0.108499 -0.299416 -0.309909 -0.196546 -0.620774 -0.370787 0.359237 0.777133 0.096648 0.424016 -0.194287 0.554292 0.207023 -0.854444 0.156358 -0.887627 0.666275 0.307459 -0.388993 0.256014 -0.027534 0.104955 -0.239893 0.261189 -0.210067 0.323386 -0.312785 0.292292 -0.027029 0.257445 0.052425 0.245060 -0.245236 0.188516 0.243992 0.183470 0.008967 0.062842 -0.244667 0.371131 -0.572240 -0.126765 0.767511 -0.567567 0.077561 0.034420 -0.268993 -0.196957 -0.159636 0.378027 0.462074 -0.344260 0.193229 0.192309 -0.691010 0.454428 0.091815 0.323365 0.185049 -0.312397 0.068353 0.379248 -0.508814 0.791031 -0.824067 0.782763 -0.701128 -0.062420 0.264527 -0.048693 0.387025 0.163850 0.201747 -0.317001 0.331672 0.032065 -0.770598 0.478011 0.005212 0.172506 -0.027836 0.451907 0.346492 0.049861 -0.236190 0.248943 0.403691 0.137621 -0.583369 0.143561 0.164549 -0.219833 0.265688 0.024821 -0.101277 0.417720 -0.218195 0.613639 0.183110 0.258768 -0.204721 -0.337516 0.214061 0.300730 0.259103 -0.186145 0.104121 0.534014 0.397371 0.366558 0.156462 0.499095 0.626372 0.004391 -0.788041 -0.470242 0.095811 -0.492765 0.449162 0.113948 -0.065077 -0.442760 -0.031210 0.685145 -0.147421 -0.116103 0.346712 0.332032 0.079342 -0.144959 0.327471 0.195343 -0.550668 
龜 1.051901 -0.144118 -1.101651 -0.478003 0.350124 0.815325 -1.183129 1.952358 -0.098673 -2.096395 0.362584 0.805534 -0.552682 -2.152524 0.430152 0.604568 -0.342396 -2.160089 1.062476 0.913475 -0.000329 0.427502 -0.649600 -0.427280 0.647244 -0.846225 -0.651317 -0.912799 0.587579 1.154429 -1.277512 0.511173 -0.382468 0.909423 -1.622265 0.462617 1.546925 -0.264178 -0.817684 1.954798 0.818585 1.641556 0.403918 -1.708720 -0.294081 0.633860 0.258681 1.112068 -0.432190 0.478346 0.096828 -1.116657 -0.495861 0.231460 0.886994 1.362813 2.481087 0.483277 1.263434 0.497392 -0.398530 -0.375715 0.392336 0.748389 -1.794940 -0.179485 1.300649 -0.141068 -0.113341 0.109373 1.655275 0.667988 -0.151850 0.644844 -1.107130 0.674641 -0.152511 -0.340733 0.195980 -0.289463 0.316494 0.711827 -0.187914 0.678746 1.185883 -1.241781 -0.054955 -0.306225 -0.723441 -0.741146 0.002854 0.459990 -0.425380 -1.131387 -0.435031 0.324247 -0.208592 -0.113363 1.133028 -0.700338 0.549866 -0.612053 -0.627727 -0.787342 -1.621680 2.477072 -1.041705 2.567838 -0.780157 -0.963846 0.708313 -0.271781 -0.772119 1.817659 -1.341262 -1.217457 -0.148481 -1.410278 0.102639 0.565770 -0.551737 1.319611 -0.436663 1.005589 -0.273338 -1.397545 -1.114757 0.238442 1.902558 0.370331 -0.489212 -0.735527 -0.660159 0.438911 -1.539049 -1.683028 1.169820 -0.157963 0.671616 -1.119691 1.667813 -0.096525 0.098821 0.617819 0.643247 -0.561881 -0.848254 0.690564 0.619949 0.424515 -1.302653 -0.801424 -0.338013 0.606735 -0.539225 0.994778 -0.918226 1.404655 0.581476 0.562403 -0.796835 0.254344 -0.028334 1.041649 0.903173 0.854816 -0.934011 0.594014 0.902314 0.875217 0.039750 0.610609 0.837741 1.466686 0.050695 -0.890264 1.428576 -1.145738 -0.960032 0.762226 -1.342401 -0.156199 0.543822 0.736038 -1.861432 0.968586 0.303968 1.163165 -0.646734 -2.346528 -0.472498 0.525644 0.473751 2.068652 -0.074178 1.489586 -1.068645 0.555353 0.734470 0.636695 
長 0.914161 0.546105 0.274241 0.055116 0.835178 0.136817 -0.291860 -0.661062 -0.675229 -0.523984 0.018210 -0.900656 -0.633003 0.816444 -0.173053 -0.306684 -0.616883 0.235260 -0.604102 1.109525 -0.840333 -1.490994 0.206391 -0.451659 0.377130 -0.872597 -0.248774 -0.700294 -0.596290 0.243801 0.397607 -0.064321 0.252544 -0.972376 0.291903 0.334443 -0.803050 -0.206838 0.313018 0.445545 0.408692 -0.237582 -0.293998 0.722394 -0.937240 0.084319 0.251744 -0.150287 1.782780 -1.077657 0.430243 0.543757 -0.796694 -0.547595 0.120513 0.066930 0.839098 0.412533 -0.622823 0.242615 -0.918144 0.249958 -1.667629 -0.464774 0.636393 -0.289426 -0.024002 0.591627 0.197262 -0.152017 0.439033 0.026176 0.013786 0.239421 -0.828648 -1.103956 -0.490709 -0.842849 0.485813 -0.098402 0.792173 0.060164 -1.308729 0.168198 0.312247 0.665941 0.005021 0.564011 -0.403057 -0.354862 -0.781303 1.164904 1.222554 -0.050498 -0.883627 0.630433 -0.693291 0.398014 0.086570 -0.096368 0.671954 -0.426121 0.894959 -1.057773 -1.048027 0.610007 0.601132 0.695390 -0.652296 0.037427 0.032801 -0.640296 -0.321409 0.974547 0.259405 0.326415 0.292495 -0.517269 -0.151792 0.198311 0.029204 0.940199 -0.102991 0.743946 -0.591784 -1.465987 0.659191 -0.929464 0.615539 0.184905 1.648347 -0.930075 -0.119163 -0.722327 -0.999398 0.738024 0.780227 1.012095 -1.403513 0.468687 1.015746 -0.232359 -0.643796 -0.244396 0.304404 -0.337262 -0.282581 -1.335922 -0.291334 0.943559 0.753835 0.996949 -0.071441 0.237740 0.011103 0.385949 1.323560 -0.244512 -1.129077 -0.278928 -0.498682 0.411439 -0.640469 0.424007 0.601546 -0.358820 -0.883537 0.454360 -0.428972 0.372010 0.313602 0.004719 0.696613 0.392900 0.143241 0.305434 -0.108048 -1.062895 -0.267324 0.214458 -0.809867 0.982323 -0.277703 0.073133 0.123928 0.749037 0.543652 -0.220744 -0.642524 0.815002 0.546455 -0.313586 -0.111047 -1.175607 0.315622 0.206513 0.296812 -0.041736 0.474255 0.197487 
夕 -0.215105 -0.501110 0.079023 0.185773 0.430522 -0.257845 0.408091 0.184853 0.283278 0.781169 0.067173 0.101844 0.615201 0.078497 0.484161 -0.010107 -0.188365 0.163291 -0.180435 0.649795 -0.306183 -0.617957 0.335183 0.663264 -0.844775 -0.774191 0.144030 -0.043474 -0.449647 -0.231633 0.345627 0.235654 -0.039122 -0.033352 0.180060 -0.097859 -0.243960 0.527933 0.225625 0.284886 0.246892 -0.209512 -0.644766 0.014560 0.520800 -0.064475 -0.283841 0.073402 -0.165437 -0.360486 0.069001 0.175300 -0.019862 0.119089 0.951511 -0.034169 0.114491 0.132361 0.299166 -0.214609 0.589388 -0.281044 -0.231973 -0.175178 -0.186505 -0.524727 -0.667225 -0.021049 0.923368 0.428986 -0.117657 -0.290783 0.402166 -0.307083 0.233615 0.453797 0.807426 -0.314992 0.130870 -0.197719 -0.673473 0.291009 0.304535 -0.506506 0.150685 0.405268 0.107815 0.653778 0.245025 -0.749273 0.835476 0.412563 0.740743 0.252659 0.387076 0.170337 -0.715070 0.022211 0.623069 0.065296 0.323353 -0.805970 -0.064630 -0.086038 0.449501 0.297505 0.177153 0.516128 -0.097479 -0.695019 0.949305 0.123710 -0.187129 -0.290601 -0.266169 -0.631958 -0.387375 -0.369125 0.020923 -0.461703 -0.611070 -0.416344 0.236067 0.135617 -0.870850 0.302094 -0.472553 0.071120 0.489194 0.378883 0.263108 0.356376 0.930762 0.249297 0.052735 0.391878 0.675970 0.345075 0.308489 -0.019815 -0.115276 0.252398 -0.386787 0.312566 0.427761 -0.354621 -0.161549 0.246793 0.544436 0.029053 -0.491053 -0.075494 0.033754 0.448502 0.058752 -0.499910 -0.110562 0.121803 0.405753 0.494565 -0.110095 -0.223876 0.452331 -0.020715 0.046979 0.274602 -0.413226 -0.084006 1.250465 -0.415776 -0.198098 0.085969 0.140281 0.078242 0.902004 0.127631 0.185511 -0.450550 0.364179 0.164271 -0.375320 -0.214619 0.153224 0.372288 0.042688 -0.179978 0.597075 -0.282353 -0.005823 -0.012601 0.161510 0.317131 0.088088 -0.184088 -0.382322 0.418676 -0.038050 0.373818 -0.405794 0.171938 
爿 1.038811 -0.303681 -0.114697 0.212300 0.394342 -0.520992 0.572562 -1.438705 0.191864 -1.155385 -2.682583 -0.870042 3.162019 -2.508468 0.279950 0.889277 0.852448 -0.416332 -2.033950 -0.987624 -0.596408 -0.521028 -1.095056 -1.188919 1.321132 1.256907 1.104369 1.331641 -1.689393 0.826874 -2.172266 1.755319 -1.958469 -0.350706 0.123091 1.088391 0.654436 1.194970 0.131744 0.617019 1.005254 2.023301 0.234027 -2.677285 0.364656 0.197868 -0.328031 -0.351555 0.125332 0.780188 -1.073158 -1.976304 0.378813 0.616191 1.722832 0.492153 1.326547 2.961101 0.930538 -1.333923 1.220229 -1.561643 -0.941950 0.222680 1.356508 0.418324 0.706457 1.703671 -0.361479 1.707118 1.579683 0.877468 0.479502 1.205499 -2.498446 -1.186169 0.665022 0.615862 0.552699 -0.145497 -0.540888 1.991340 -0.278294 0.505719 -0.432209 -2.983908 1.009048 1.501567 -1.787399 0.785301 0.717633 -1.464118 0.610216 -1.253414 1.285000 -0.545681 -1.623531 1.748205 -1.438388 -0.267499 -0.738956 0.713224 0.267095 -0.782995 -0.786249 -1.527415 1.348786 0.534768 0.193101 -1.072483 -1.322550 1.185331 0.071103 -1.814159 -0.252335 0.251205 1.165367 0.079910 0.145200 0.367617 1.804962 0.428406 0.026758 -0.826525 1.052799 -0.102376 -0.360841 0.865471 -1.457387 0.876861 1.868332 -0.571156 0.383092 -0.758061 0.581202 -0.457139 0.909505 0.086691 0.496898 -0.849373 2.285781 -0.596118 1.026249 -0.236367 -1.962787 -0.745385 1.063162 -0.199650 -0.153673 -1.130780 -1.057369 -1.358311 0.264609 1.024569 -0.730380 1.411639 0.043099 0.163064 -0.547235 -0.815811 -0.498095 -0.535260 1.649495 -2.063618 -1.278972 0.318478 1.204402 1.052527 2.894859 0.326559 2.505631 0.446231 0.194615 -1.476500 0.488012 -0.319402 0.775447 1.100624 0.083324 0.506780 -1.113245 1.069587 -0.474334 0.725368 -2.366222 1.498998 0.101893 -1.668345 0.196260 -1.270936 -0.726034 1.668001 -0.616951 -0.273306 -0.470817 3.335812 -0.984315 -0.591066 -0.075050 0.061285 
禸 1.718397 -0.336350 0.744245 0.725230 -0.613266 -0.324189 0.690146 0.934982 0.159016 0.120293 0.668560 0.287131 -0.541102 -0.586205 -0.492495 1.275236 -0.410032 0.307496 0.598816 0.086795 -1.598850 0.711926 -0.151235 0.296760 -0.172695 0.281521 -0.344846 -0.593912 -0.117066 -0.477412 0.384158 -0.182036 -0.539361 -0.309863 -0.605890 -0.149540 -0.027193 -0.182423 0.625073 -1.071604 1.481635 -1.579260 0.759872 -0.573677 0.886868 0.284917 -0.416697 -0.348990 -1.207499 -0.514273 -1.078351 1.148996 -0.320784 0.769722 0.459747 -0.734996 -0.251182 -0.981539 0.894293 0.218061 0.572192 0.195013 -0.500384 -0.556231 -0.668922 0.853946 0.936397 0.097350 -0.962442 1.235977 0.444397 0.690618 0.703206 0.272435 -0.695757 -0.363711 0.601123 -0.952670 -0.940256 0.161172 -1.286476 0.141385 -1.044012 0.070452 -2.160627 0.430259 -0.095916 0.558547 -0.805745 1.230077 0.219218 0.050272 -0.425839 -0.738758 -0.612033 -0.099999 -2.034404 0.834646 -0.847166 -0.368662 -1.000007 -0.465094 -0.262119 -0.003575 -0.511651 0.478895 -0.182812 0.414063 -0.138578 -0.398245 0.358261 0.413227 -0.313240 1.556153 1.334963 0.634365 1.249659 0.633461 0.116931 -0.856945 0.895084 -0.631468 -0.320665 0.565952 0.262025 1.144780 0.966287 -0.030788 0.952116 -0.533767 -0.408231 -0.579551 0.807256 0.386759 -0.447699 0.618996 -0.143006 -0.527073 -0.083030 -1.276463 0.199161 1.920788 -0.012404 0.195975 0.055603 -0.275070 -0.714730 -0.320228 0.634731 0.339089 -0.142049 0.158536 0.804058 1.559048 -0.697348 -0.204439 0.693800 -1.748870 0.235623 0.116189 -1.663841 0.582744 -0.261459 -1.342002 0.835266 -1.081570 -0.382264 0.396348 -0.306181 -0.379760 -0.342889 0.058225 1.390286 0.030821 -0.146225 -1.327943 -0.322149 -0.060150 -0.746763 -0.120351 -0.533452 0.515373 -0.848012 -0.117795 0.038714 0.514388 0.121996 0.969390 -1.512341 0.241547 -0.718568 -0.369725 -0.730016 0.440789 -1.105841 0.465636 1.032554 0.507695 0.257194 0.307192 
父 1.888716 -0.202760 -1.007062 0.176847 1.397979 0.129506 0.557230 0.493833 -1.674770 -0.340365 -0.590210 -0.678618 0.772379 -0.344294 0.076519 -0.399454 -1.254899 -2.036055 -0.763776 1.576243 0.070987 0.506912 0.178287 -0.212301 0.037738 0.130584 0.559423 0.592575 1.517373 0.771200 -0.915218 1.224142 0.101121 -0.509974 -0.054861 0.281936 0.892758 1.240284 -0.224671 -0.783289 -0.732783 0.500233 0.249230 1.148556 0.336973 -0.343886 0.371479 0.377654 -0.095025 0.610897 -0.564082 -0.625716 0.802716 2.366340 0.133988 -0.316447 0.608935 -0.745780 0.679325 -0.752710 -0.173990 -0.522307 -1.447894 0.007677 1.170299 -0.379344 1.169775 0.277044 0.619282 -0.406654 1.046201 0.443535 0.047728 1.331053 -0.870653 -1.433947 0.594339 0.082968 -0.717603 -0.638148 0.196379 0.960913 0.283174 -0.638794 -0.360951 0.477209 -0.858194 -0.196192 0.831334 -0.067157 -1.588565 -1.013602 0.501962 1.580410 0.405009 0.195620 0.416372 -0.697853 0.613063 -0.395995 0.842922 -0.406421 -0.615265 -0.454374 0.284108 2.257416 0.462997 0.853232 -0.310646 -0.497834 -0.969573 -0.643927 -1.166573 0.519834 1.013351 -0.141810 0.332614 0.375687 -0.961541 -0.521032 -0.481771 0.404123 0.997548 0.036737 0.137466 -1.363261 0.984368 0.197814 0.093389 1.156643 1.768040 -0.021052 -0.291064 1.259571 0.211751 -0.114797 0.208733 -2.396242 0.908280 -0.509142 -0.822133 0.168604 1.850304 0.318571 -0.742642 -0.135209 -0.362153 0.487546 0.489050 -0.459738 -0.234352 -1.886418 0.990615 -0.243071 0.229038 -0.086101 -0.425804 -0.986317 -1.156041 0.284724 1.310667 0.535544 -0.010175 -0.935108 -1.097669 -0.278242 -0.300028 0.115570 0.675790 -0.419654 1.134940 0.501917 0.250212 -0.549327 1.766714 0.240428 0.841557 1.371349 0.211408 -0.045402 0.505180 0.402282 0.193012 1.137114 0.298112 1.221310 1.535775 -0.575675 -1.075505 0.767883 -0.137432 -0.911572 0.476536 -0.149410 -0.070670 -0.262401 0.580022 0.933723 -0.656359 0.520914 
亅 0.330547 -0.051136 -0.266316 0.046946 -0.107185 -1.163687 -0.035408 -0.163035 -0.150230 -0.160188 -0.056245 0.167669 -0.043099 -0.572992 0.111364 0.485206 -0.491993 -0.260807 -0.123264 0.478913 -0.021281 -1.037811 0.155352 0.318512 0.010354 0.919264 0.277205 0.040666 0.181481 0.207061 -0.067847 -0.266890 -0.073340 -0.144445 0.183322 0.890047 -0.044574 -0.055611 0.188943 -0.046233 -0.026987 0.366624 0.620345 -0.551679 -0.375093 0.112014 -0.714436 -0.984762 0.264479 0.056905 0.468786 -0.276286 -0.075189 0.004382 0.099467 -0.094837 0.058457 -0.213193 0.433553 0.480759 0.086245 0.010505 -0.152813 -0.376802 -0.298466 0.003786 0.971733 -0.102607 0.440051 0.736361 0.170525 -0.805584 0.343336 -0.101130 0.317290 0.425460 1.085444 0.035897 -0.365458 -0.020713 -0.162939 0.132758 0.345665 -0.018749 0.302422 0.247654 0.913687 0.912250 0.548919 -0.357239 -0.403042 -0.136955 0.100669 -0.283127 -0.506373 0.091770 0.403290 0.164551 0.076938 0.391610 0.150676 -0.129083 -0.416981 0.275106 1.716466 0.596406 0.439641 -0.077853 -0.122217 0.204141 -0.304079 -0.479747 0.215068 -0.078327 -0.217363 -0.522669 0.142331 -0.145102 -0.098789 -0.810135 0.132204 0.393353 -0.445962 -0.203984 -0.255920 -0.835687 -0.174906 0.612818 -0.208382 -0.178728 0.291083 0.112518 -0.169503 0.445311 0.490388 -0.767023 -0.423518 -0.375546 -0.448983 0.697776 -0.738232 -0.381624 -0.436224 -0.659279 0.011136 -0.642310 -0.388607 -0.296531 -0.375285 -0.100446 -0.302487 0.199280 -0.215689 0.162756 0.041788 0.042706 0.026497 -0.572214 -1.120352 0.183495 -0.235455 -0.186957 0.051304 -0.647843 -0.096934 0.078765 0.127908 -0.170218 0.390892 0.384275 -0.006366 0.219265 0.264743 -0.513996 -0.130607 -0.098568 -0.128658 -0.316058 0.607831 -0.569312 0.013820 0.243864 -0.520270 -0.729956 -0.053339 0.244048 -0.574570 0.653538 -0.298998 -0.114213 0.304773 -0.107005 -0.186879 -0.194010 -0.360254 -0.194100 0.114260 0.015195 -0.863771 -0.066442 
牛 0.607077 0.169456 1.082015 0.126528 0.658387 0.244864 -0.497313 -0.066375 -0.151165 -0.026470 0.289997 1.344235 0.085945 0.175144 -0.028115 0.283725 0.077981 -0.046256 -0.091633 -0.004414 -0.915615 -0.179759 -0.079381 0.237775 -0.455122 -0.408438 0.174004 0.573859 -0.059544 0.204716 0.131775 0.232552 -0.034774 0.257831 -0.230242 -0.060896 0.043003 -0.500657 0.150674 0.031686 -1.030823 -0.886812 0.124515 1.114041 0.560410 0.480054 -0.776399 -0.635779 -0.157173 -0.003515 0.218506 1.014591 -0.103465 0.256099 -0.140136 -0.095367 0.019854 0.209966 0.332118 0.131403 0.001134 -1.080510 -0.158450 0.743267 -0.348787 -1.297307 0.844131 0.152864 0.122509 0.289680 -0.296090 0.532372 0.163769 0.536971 0.531516 0.762483 0.429505 0.466692 -0.313918 -0.695438 0.428796 0.347981 -0.786240 0.005212 -0.287543 -0.496535 0.571655 -0.815994 -0.639378 -0.873201 0.065601 -0.137425 0.862403 0.775609 0.576234 0.503040 0.132053 0.661283 -0.313351 -0.465175 -0.627418 0.318454 0.211552 0.082065 -0.008489 0.223589 0.846612 -0.642201 0.361211 -0.308381 -0.233041 1.038858 -0.357704 0.222742 -0.403500 -0.157518 -0.821128 0.026189 0.135472 -0.754080 -0.191007 0.636417 -0.288747 0.038998 -0.162852 0.000679 0.877929 -0.336237 -0.161162 -0.707322 -0.067630 -0.151126 1.032666 -0.204467 -0.401172 -0.914162 0.746148 -0.421157 0.836433 -0.346086 0.043950 -0.791619 0.627119 -0.318826 0.578826 -0.766289 -0.291212 -0.105930 0.558476 0.140141 0.341961 1.107358 0.286875 -1.518369 0.564122 -0.073467 -1.459001 -0.653753 0.547161 -0.743230 -0.303019 0.642003 -1.075230 -0.211391 0.336719 -0.287722 0.664780 0.516265 -0.581185 0.660445 -0.666067 -0.163844 0.262091 -0.513619 0.006154 0.113296 -0.594723 -0.739807 -0.522909 0.121948 0.359491 -0.489267 -0.313812 -0.274906 0.386203 -0.078120 -0.049072 -0.746113 0.456795 0.118293 0.111581 1.594196 -0.053565 -0.431329 -0.137843 -0.046090 -0.129552 0.411683 0.068117 0.148429 
米 0.264119 0.122745 1.159645 0.651091 1.114182 -0.785119 -0.798545 0.122826 0.028169 0.847886 -0.647901 0.172049 0.322705 -0.669626 -0.375856 -0.560246 -0.409422 -0.077638 -0.228912 -0.585397 -0.429565 0.315489 -1.424018 0.030194 0.207493 0.349842 -0.737039 -0.012439 -0.308248 -0.739904 0.494675 -0.554657 -0.991268 0.191497 0.470605 -0.300225 0.423334 -0.539144 -0.195865 0.557346 0.130255 -0.033082 -0.150186 0.237549 0.184991 0.155725 0.017378 0.057635 -0.430818 -0.425007 0.082482 1.679157 0.072892 0.273231 0.048217 0.436958 0.930661 -0.137768 0.744909 0.508983 0.828762 -0.336913 -0.320896 1.159159 -0.215511 -1.181177 -0.304661 -0.387410 -0.761008 0.607577 0.170871 0.059915 -0.677959 -0.007318 0.082715 0.838580 -0.223175 0.429219 0.292803 0.243836 -0.116743 0.225801 -0.258043 0.090781 0.253955 0.220825 -0.844086 0.373685 -0.551408 -0.741826 0.372375 0.137808 -0.247933 0.032017 0.293268 0.397203 -0.912748 -0.513804 -0.205204 -0.432259 -1.512055 0.288140 0.557018 0.463601 0.120085 -0.297073 0.365741 0.308536 0.338810 -0.111973 -0.489440 -0.141986 0.364993 0.063695 -0.228425 -0.143027 -0.262000 0.428510 0.317213 -0.417262 0.257311 -0.109435 0.483607 0.637461 0.611320 1.130584 -0.254714 -0.152138 1.406377 0.031843 -0.279462 0.542457 -0.561157 -0.388776 -0.275121 -0.776577 0.076284 -0.102485 -0.134997 -0.288799 -0.256670 0.637770 0.014109 0.383061 0.466048 -0.696408 -0.251883 -0.193005 -0.364905 -0.241908 -0.077442 -0.122069 0.856143 0.061625 -0.791362 0.712153 0.210705 -0.494448 -0.743006 -0.289407 -0.236823 -0.028390 0.209182 0.992490 -0.040344 -0.611229 0.674430 -0.722127 0.739255 0.280652 0.703763 0.828997 -1.015734 0.511152 -0.271897 0.400512 -0.258678 0.091225 0.774024 -0.307099 -0.164178 -0.515441 -0.702389 0.216556 0.118471 0.410179 0.754013 0.043227 0.819111 -0.119033 0.033694 -0.086439 -0.327552 0.452669 0.463355 0.120293 0.703213 0.530147 0.734569 -0.453650 
谷 0.739442 0.400545 1.038625 0.358870 0.486416 0.455904 0.174293 -0.486711 0.195046 0.309174 -0.709876 -0.216057 0.086309 -0.755321 -0.333475 -1.805882 0.939206 -0.925760 0.885928 0.383666 -1.341693 -0.411015 -1.641373 -0.616331 1.256784 -0.681309 0.928724 -1.266541 -1.348177 0.055290 -0.753792 0.210338 -0.142056 -0.653329 -0.300818 1.749650 0.968423 -0.638960 -0.863118 0.029420 0.261056 -0.378502 -0.244229 -0.094501 -0.152619 0.610087 0.510600 0.288954 0.167323 0.127008 0.042590 -0.294154 0.538276 -0.370126 0.517284 1.524480 0.936677 0.587201 1.174627 0.464969 0.145224 -0.135000 0.656616 0.280172 0.618418 -0.135531 -0.291986 -0.729194 0.157402 0.116741 -1.598394 1.811894 0.271741 -0.415072 -2.023890 0.728550 0.221660 -0.394315 0.816428 -0.114541 0.828228 0.089887 0.114627 0.623109 1.060343 0.158961 0.399950 0.921255 1.655116 0.492332 0.521480 0.565397 0.300270 -0.009366 0.463395 -0.852051 0.409580 0.397789 -0.224164 -0.627140 0.506154 0.123860 -0.065970 -0.193575 -1.168947 0.009338 -0.201506 1.213046 0.236823 -1.392295 -1.275288 -0.603715 0.615771 -0.643235 -0.167434 -1.903138 -0.888458 0.168117 0.112349 -0.315522 -0.378737 0.246708 0.300920 1.825916 0.790559 0.482360 -0.658415 -0.780883 -0.550044 -0.814545 0.479254 -0.949915 -0.322235 0.039490 0.451413 -0.611631 -0.610284 -1.169799 -0.079323 -0.395374 -1.445344 1.696087 0.249529 -0.517097 0.378517 2.285795 0.624074 0.014700 -1.061445 0.031844 -0.905134 -2.044780 0.077735 -0.978199 1.302180 -0.645578 -0.840719 0.160369 -0.759145 -0.599402 -0.778740 -0.080010 0.372777 -0.265784 1.032636 -1.011009 0.340040 1.081437 -0.930157 0.289132 0.965651 -1.349710 1.670599 -0.433655 -0.900394 -0.125839 1.207847 -1.255062 -0.440775 -1.115138 0.135690 0.055617 0.620797 -0.324776 -1.090574 -1.151462 -0.381539 0.771856 -1.380857 -0.713029 -1.541164 -1.120540 1.297310 0.788952 -1.421642 0.215290 -1.343351 -1.229181 0.316449 0.853364 
一 0.422782 0.414522 -0.193936 0.172491 0.038235 0.032452 0.119094 0.060442 -0.026282 -0.093597 -0.210466 -0.243135 0.122066 -0.008491 -0.367113 0.013856 -0.082039 -0.046801 0.225801 0.285328 -0.151227 -0.530533 -0.368042 -0.127209 -0.098214 -0.253549 0.106473 -0.133947 0.409096 -0.475643 -0.199247 -0.056458 0.019902 -0.125042 0.065086 0.042336 0.170242 -0.272695 -0.146229 -0.097448 -0.011483 0.321674 -0.126754 -0.166797 0.337074 -0.045007 0.212764 0.138112 -0.252758 0.028206 -0.119612 -0.603281 0.159581 -0.138068 -0.181818 -0.082045 0.165949 0.046208 0.252693 0.306787 0.215039 -0.148004 -0.002132 -0.207830 -0.357020 -0.567774 -0.369097 0.217414 0.131365 -0.079008 -0.034492 0.028748 -0.288596 -0.163422 -0.110434 0.015252 -0.170700 0.078667 -0.054190 -0.195644 0.041032 -0.164486 -0.054254 0.051484 -0.128353 0.198469 0.388061 0.181503 -0.191765 -0.037057 0.029956 -0.048252 -0.172703 -0.464078 0.197566 0.196617 -0.521975 -0.119979 -0.190490 0.197476 -0.200354 -0.442626 -0.230153 -0.257246 0.224787 -0.297405 0.222107 0.011623 -0.041184 -0.208429 0.569656 -0.440049 0.345483 -0.342790 -0.047050 -0.042879 0.077446 -0.156411 -0.130741 -0.310518 -0.524892 0.029842 -0.182442 -0.137486 0.001174 0.175467 -0.207555 -0.121318 -0.291496 -0.452079 0.592904 0.169067 -0.197989 -0.076903 -0.493419 -0.408514 -0.196733 -0.177591 -0.213236 0.112285 -0.148728 0.038358 0.129946 -0.137683 -0.170176 0.126389 0.077375 0.010461 0.100096 -0.042079 -0.137079 0.221751 -0.030027 -0.065150 -0.215863 0.147567 -0.516337 -0.018872 0.101219 0.133370 0.084683 0.240337 0.227907 0.130228 -0.117200 -0.104252 -0.373582 0.384860 0.000148 -0.464006 -0.107582 0.157002 -0.233740 -0.185668 0.162699 -0.082408 -0.002267 0.106485 -0.050928 0.229509 -0.160145 0.238615 -0.107464 -0.216040 0.327808 0.295059 -0.154883 -0.148998 -0.265972 -0.371103 0.101310 0.264968 -0.295351 -0.264282 0.626237 -0.174096 -0.290264 -0.120084 0.025249 -0.210105 
匚 0.097582 1.933270 -0.392185 -1.818041 1.898787 0.083265 0.691073 -0.283367 -0.014751 -0.575973 0.129589 -0.466435 1.900967 0.281671 0.569659 0.365043 0.392128 0.381931 0.797740 0.241686 -0.775619 -0.122660 -1.084035 -0.523386 -0.157097 0.389271 -0.144596 0.985804 -1.089504 -0.311918 -0.726115 1.283483 -0.402616 -1.222197 -1.249782 0.114707 -0.276825 1.392087 -1.163885 0.598464 -2.036827 1.337889 -0.562942 -0.267276 -0.333459 -0.185794 0.278860 1.199419 0.981211 -0.543089 0.296358 -0.722748 1.190058 0.543929 0.870373 -2.039119 0.649088 0.574438 1.575842 -0.839853 0.310425 0.577297 0.089493 -0.845714 1.515514 -0.116290 -0.659637 0.547013 -0.295693 0.051855 -1.323110 -0.345282 -0.345388 -0.008236 -0.734251 1.739428 0.549273 0.945778 0.203038 -2.803109 0.439186 0.185046 1.137838 1.201095 0.939616 -0.353703 -0.953110 -0.710833 -1.350782 1.049971 -0.035977 0.035161 -0.940224 0.495190 0.519104 -0.043820 -0.032431 0.097247 0.000156 0.910309 0.135292 0.234975 0.870683 0.212383 0.421516 2.357710 0.132110 0.021917 1.003391 -1.321335 -1.259990 -0.235279 -0.652224 0.730453 1.176906 -0.664402 0.226032 -0.384077 -0.251600 -0.997646 0.634132 0.535105 -0.843929 0.262659 0.103650 -0.437313 -0.830109 0.318555 0.243753 0.519918 0.733954 -0.222990 -0.299399 0.562172 -1.156506 1.170044 1.102773 0.089921 0.396283 0.807029 -0.190940 -0.884348 1.282291 0.777855 -0.801946 -0.484306 1.124552 0.333133 -0.890784 1.408197 -1.605267 0.533683 0.460806 0.251641 -1.346686 -1.054066 0.155717 0.649250 -0.463619 -1.720525 0.297680 -0.713657 1.572456 -0.352553 0.123969 0.169790 0.371671 0.651521 -0.433630 -0.635655 1.026348 -1.075954 -0.201125 -0.870925 -0.642711 0.431712 0.210259 0.762143 0.878791 0.108149 -0.075050 -0.129117 0.393541 -0.240272 0.791359 0.754256 -0.924582 -1.217593 -0.475522 0.349890 1.179083 -1.125605 -0.521824 -0.473454 -1.389553 -0.349822 -0.212589 -0.139514 0.443071 0.504086 
豆 0.850559 -0.505538 -0.010488 0.237384 -0.131554 1.080712 -2.118128 0.468017 0.196081 0.801576 -0.472695 0.941585 0.484307 -1.030003 0.319349 -1.160093 0.231377 -1.691857 -0.351148 1.004374 -0.026702 -0.740723 -0.529611 0.111812 0.494785 -0.393766 1.074541 -0.572357 -0.853069 1.131990 -1.196261 0.141943 0.139507 0.442128 -0.561202 0.709948 1.115780 0.271569 0.107121 2.362598 -0.987670 0.567459 -0.167754 0.544911 0.315538 -0.109821 0.781485 -0.000927 -0.061300 -0.174989 0.569193 -0.108834 0.510138 -0.163427 -0.139078 -0.178417 1.325132 -0.070904 1.809411 2.191749 -0.385042 -0.873083 1.178994 -1.134915 -0.554710 0.239344 -0.183982 1.054871 -0.063035 -0.542221 0.064406 -1.626495 -0.061363 0.624679 0.166376 1.203627 -0.800586 -0.455627 0.929811 -1.562451 1.326073 0.604193 -0.408432 0.810842 1.616254 -0.816695 -0.137297 0.739293 0.592633 -1.738257 1.318198 -1.113218 -1.039484 0.142004 1.572516 -1.639541 -0.612998 0.490336 0.792981 -1.342123 -0.033486 -0.350257 0.187712 -0.591845 -0.711427 0.542706 0.991136 -0.281762 -0.516943 0.603754 0.067847 0.762862 -0.992878 0.483612 -0.288886 -1.758773 -0.072758 -0.151240 -0.744736 0.781648 -0.450905 -0.488758 -0.304772 -0.119962 0.916812 0.055357 0.497324 -0.226239 1.106377 0.495131 -0.185578 0.128816 -0.226864 0.618502 0.142316 1.211278 0.564805 -0.213052 -1.538031 -0.183732 -0.025075 1.658252 0.465147 0.660373 0.475642 -1.032746 0.141218 1.139266 -0.629010 -0.037803 0.147902 -0.151137 0.685822 0.826524 0.781488 0.028490 -0.815420 -0.709187 -1.406359 0.079229 -1.535181 0.684087 0.373624 0.238146 -0.476112 -0.503228 0.193682 1.013333 0.008048 0.553245 1.028253 0.967554 1.167860 -0.136923 -0.165875 -1.102045 2.043642 0.138422 -1.015858 0.051414 0.321076 -1.365909 -0.955433 -0.763372 0.121998 1.725580 1.353410 -0.030486 -0.703220 0.235124 0.926434 -1.049763 -0.882712 0.525943 -0.548900 1.018961 -0.141165 -1.055009 0.030825 -0.763987 
夂 0.706853 1.497634 0.743631 0.394792 -0.226622 -0.597274 0.214686 -1.037713 1.430363 0.069619 -0.295579 -0.093800 1.242855 -0.177227 -0.181516 0.993602 0.341749 0.686031 0.396984 0.162284 -1.038003 0.125679 0.368075 0.291229 -0.773220 0.522236 0.083094 -0.980331 0.045077 0.325430 -0.623881 -1.107451 0.795553 0.466725 0.605822 -0.138748 -0.799949 0.327310 0.438179 -0.484988 -0.913613 -0.214415 -0.806327 1.030682 -1.821290 0.899480 -0.014642 -0.090857 0.144085 -0.086895 -0.364069 1.121811 0.462298 -0.153978 -0.096338 -1.086651 0.809412 -0.128209 0.052617 -0.061699 -0.370745 0.682911 -0.139561 0.674417 -0.478288 -0.551153 -0.703409 0.187745 1.093428 0.898159 -1.304969 1.460121 0.420098 0.306632 -0.504936 0.453484 0.834396 -0.513563 -0.240226 -0.132699 -0.446585 0.105782 0.565801 -0.377225 -0.781608 -0.145299 0.238762 -0.717227 -0.314301 0.877379 0.202217 0.245504 0.390789 -0.329233 -0.208058 -0.705239 -0.515369 -0.626728 -0.943955 -0.024212 0.579817 -0.729570 -0.515953 0.618477 0.397544 -0.060657 0.648012 -0.406218 0.317362 -0.342897 -0.271150 -0.152451 0.129651 -0.064280 0.216075 0.411373 -0.286006 -0.413656 0.067115 -0.838801 -0.160961 -0.986163 0.705879 -0.907804 -0.574148 -0.277358 -0.333429 -0.324097 0.657577 0.307581 0.097103 -0.000586 0.592665 -0.054739 -0.722641 1.882517 -0.029833 -0.200720 1.339909 0.259459 0.279854 -0.092192 -0.304148 -0.669677 0.533389 0.148745 -0.564669 0.313898 -0.016119 0.569464 0.490232 0.817611 -0.263098 0.876278 0.093611 0.622134 0.249063 1.208316 0.173083 -1.272398 0.234897 0.530126 0.823965 -0.239252 0.239907 -0.304332 0.340704 -0.231777 -0.175779 -0.778130 -0.844352 -0.117441 -0.386292 0.213270 -0.328233 -0.023787 0.348486 -0.265750 0.721345 -0.306956 -0.278195 0.000432 -0.280193 -0.180237 -0.476457 -0.011575 -0.539450 0.183592 -0.627148 1.084193 0.431976 -0.536778 -0.566123 0.205162 0.351246 1.731596 -0.053444 0.303304 0.096340 -0.948665 
身 1.037813 0.379197 -0.271625 0.135178 -0.644381 -0.068732 1.000585 -0.210792 -0.241465 -0.866234 0.419099 0.028495 0.600000 0.214797 -0.655301 0.295592 0.598986 -0.181523 -0.052153 0.462582 -0.126646 -0.117184 0.639988 1.619556 -0.406627 -0.527994 0.519725 0.468559 -0.800565 -0.219304 -0.311262 -0.578165 0.855680 0.638905 -0.419584 -0.066664 0.485218 1.002461 -0.346858 0.590665 -1.072926 -0.667078 0.518923 0.160287 0.084940 -0.181503 0.996971 0.268949 0.481768 1.451526 0.353282 0.335687 -0.520986 -0.239882 -0.389843 0.435699 0.213569 -0.662912 0.304496 -0.694483 0.029080 0.336253 0.362180 -0.118262 -0.740683 -0.127651 -0.206804 0.276285 -0.680847 -0.946321 -0.816190 -0.563363 0.206348 -0.025224 0.233974 -0.591142 0.304073 -0.354934 -1.148027 0.366842 -0.013083 -1.047390 -0.409496 -1.076239 0.082016 -0.365006 -0.705075 -0.091483 -0.099071 0.969585 -1.172864 0.138242 -0.855851 -0.613211 0.240878 0.401833 -0.131089 -0.375395 -0.347186 -0.428144 -0.650868 0.420970 -0.401999 -1.058957 1.582640 1.114977 0.808047 -0.070128 0.601130 0.201324 -0.598765 1.067753 0.658993 -0.097234 -0.730334 -0.457209 0.288731 -0.023841 0.999293 -1.620622 -1.668195 -0.300603 0.372760 1.277943 0.334212 -0.308844 0.702257 0.066769 -0.328732 -0.177882 0.798065 -0.067635 0.174996 0.464868 0.762704 -0.642813 0.251056 0.698680 -0.669968 0.316637 -0.236446 0.123436 0.794510 0.268806 0.274441 -1.464838 -0.991588 0.040836 -0.487546 1.211321 -0.467462 0.245349 0.829986 -0.039343 0.392302 -0.394744 -0.048557 0.035823 -1.493261 0.086720 -0.475420 -0.320954 -0.432155 -0.360589 0.351164 0.728604 -1.380157 -1.094786 -0.033731 0.021731 0.501329 0.139173 0.700711 -0.766899 0.809452 -0.392103 -0.165338 0.223673 0.247422 0.005811 0.155405 1.011171 -0.182862 1.226085 -0.434994 0.656919 0.421019 -0.492041 -0.759894 -0.314060 0.370481 0.410179 1.239963 0.039819 0.262188 0.401001 0.914474 -0.107817 1.666732 1.288321 
乙 -0.031934 0.533306 -0.232449 -0.681763 -0.114345 0.423129 0.632553 -0.175960 -0.277380 -0.680834 -0.630813 0.402925 0.946668 -0.102156 0.322325 0.182520 -0.244184 0.244950 -0.787695 -0.009647 0.023069 -0.422152 -0.098563 -1.269117 -0.220164 0.157714 -0.281165 0.708070 0.102890 0.691279 -0.455854 -0.725259 -0.049758 0.252931 -0.147827 -0.081815 -0.283150 0.389342 -0.882680 -0.201119 0.185970 -0.021280 -0.020853 -0.206870 0.406669 0.233842 0.602937 -0.630125 0.761864 0.281482 0.045059 -0.978598 0.064708 -0.594489 -0.499268 0.275313 0.436239 0.031311 -0.307941 -0.160408 0.383633 -0.526971 -0.446818 -0.542915 -0.657885 -0.156010 -0.298158 0.423391 0.171462 0.569299 -0.371140 -0.100689 -0.150897 -0.142653 0.782454 -0.126021 0.139840 0.484617 0.278164 0.497759 -0.339285 0.149308 -0.495380 0.418259 -0.054110 -0.452590 0.229786 0.320991 0.089009 0.577758 -0.244196 -0.411873 0.750368 -0.047244 -0.216081 0.713419 0.744689 -0.263216 0.078841 -1.346159 -0.007594 -0.225272 -0.277775 -0.459726 0.045074 0.360503 -0.354687 0.634451 0.889381 -0.170806 0.477742 0.536451 -0.186686 0.168915 -0.421084 -0.095497 -0.327803 0.209900 -0.504448 -0.616519 0.067259 0.195109 0.187898 -0.752889 0.300152 -0.443479 0.373523 0.077260 0.880143 -0.695871 -0.062565 0.989085 0.175702 0.372138 0.058793 0.394528 0.267169 -0.262358 0.235022 0.183019 0.954258 -0.037626 -0.017051 -0.318407 0.105917 -0.555529 -0.579470 -0.068704 -0.188630 0.117177 0.057416 -0.130318 -0.232533 -0.114443 -0.092511 -0.144142 0.861867 0.062191 0.114416 -0.042491 1.229629 0.136452 0.516503 0.275351 -0.060748 -0.070551 -0.917970 -0.088945 0.564483 0.890863 0.000272 0.028141 -0.303314 0.203663 -0.599889 -0.446840 -0.761360 -0.323041 0.663079 0.066043 0.208308 0.011946 0.089984 0.315825 -0.277490 1.524947 0.287112 0.915885 -0.620347 -0.009453 0.329679 -0.327566 0.263063 0.110117 0.341473 -0.613401 -0.269805 -0.476498 -0.807905 -0.640781 
阝 3.283571 2.259692 -1.576315 1.308941 1.598311 0.146735 -1.246731 0.633422 -0.850836 -0.962563 -1.160007 1.667578 1.596955 -2.771397 -0.509323 2.411689 1.536900 -1.050088 0.661654 1.240184 -0.579590 -3.516126 -0.553573 -0.934534 1.697898 -0.539747 -0.627127 0.559103 1.588953 -1.818677 -3.171020 1.225113 0.040100 -0.648436 -1.073591 3.116130 -1.035436 -0.190744 -1.578090 -0.526503 -0.892515 0.891892 0.773450 -0.447238 1.397713 -1.320225 -0.252928 0.769015 -1.041012 0.484871 0.759735 -0.261200 2.837822 -1.118586 -1.451361 -0.826614 0.823168 1.286166 -1.072009 -1.024271 2.309723 0.287520 -0.143273 1.764650 0.168384 3.400606 0.043199 1.043608 -2.547890 -0.001000 0.175307 -0.043072 0.025707 -1.097410 -1.978160 0.701263 -0.224997 0.740068 -0.457150 -1.692826 0.084477 1.059851 -2.019484 0.095286 0.402914 -4.197653 1.800977 -0.477283 -0.453580 -1.870375 0.438187 -1.305079 3.459255 -2.222302 1.346321 0.082003 -0.341106 1.014222 0.436550 -1.028086 -0.204129 -1.431250 -0.063416 1.981810 -0.352415 -0.124462 -2.802032 0.501099 0.321871 2.014478 -0.234952 3.424189 -0.651667 -1.742648 -0.630824 1.751719 0.785228 -0.482371 -3.513865 2.044479 1.127026 1.848948 1.010474 -1.298462 0.057170 0.103307 -1.632093 -0.985555 -1.471265 0.238862 2.054982 0.583453 -0.702966 -1.924160 -0.095142 -1.774730 2.290972 0.965357 -0.278308 -0.115689 0.192796 -0.615425 2.442180 -1.452651 -0.291679 -0.023837 1.975558 -1.793680 -0.157705 0.424619 0.063413 0.300463 -2.507562 0.769403 0.456629 -0.291196 -0.286016 -1.197955 -0.051295 -1.084544 0.582867 0.384594 2.514762 -1.974800 0.092442 -0.562414 0.944058 -2.455496 1.522875 1.459182 2.425606 -2.855834 0.223165 -0.818692 0.458045 -0.329948 0.386375 -0.978530 -0.348183 1.573369 -1.500959 1.550791 0.105806 0.091761 -0.442466 1.182066 -0.752010 -1.923524 0.768260 -0.317852 -0.208996 0.657158 3.779032 -1.742669 -0.376160 1.752011 0.302767 -0.992074 -0.969591 0.341124 
小 0.409693 0.762538 0.484202 -0.334063 -0.338906 -0.335877 -0.285640 0.435915 -0.741197 0.519388 -0.233982 0.655453 -0.099803 -0.052967 0.730979 -0.172640 -0.526011 -0.655607 -1.191388 -0.073584 0.251449 -0.316580 0.408062 0.463530 0.196742 0.185598 0.080015 0.034563 -0.300357 -0.248011 0.209233 0.075577 1.125469 -1.346307 0.142558 0.448200 -0.609765 0.328721 -0.217548 0.425196 -0.215335 -0.346980 -0.164744 0.752898 -0.240013 -0.431005 -0.899884 -0.590557 -0.211443 0.469379 -0.626815 0.236362 -0.366945 0.696100 -0.741966 0.521773 -0.618252 -0.087598 -0.014863 -0.282162 0.415830 0.634799 0.623145 -0.443618 -0.559151 0.076705 0.163332 -0.403523 -0.363178 0.485907 -0.054028 -0.165835 1.479901 0.251340 -0.278138 0.826731 0.516338 0.243626 0.401000 0.364601 0.235586 -0.811357 -0.556529 0.929565 0.535153 0.252877 0.043681 0.931678 -0.324995 0.190341 -0.057323 -0.653450 0.083080 0.059675 -0.192404 0.924433 0.261050 0.625796 0.308524 -0.431016 -0.109422 -0.161963 -0.153571 -0.008425 -0.262089 -1.021883 -0.311622 -0.217927 -0.751398 -0.555616 0.275683 -1.086600 0.067980 0.972981 -0.384332 0.277301 0.060874 0.370130 -0.083946 -0.500530 -0.456361 -0.354055 0.135989 0.083217 0.345086 1.198246 0.571331 0.252781 -0.112655 0.596790 -0.803376 0.115231 0.201377 -0.364388 -1.211603 0.201212 0.230715 -0.305245 -0.589838 -0.139771 0.127555 -0.663906 0.110837 0.100825 0.308443 -0.639152 -0.284004 -0.643245 -0.348009 -0.786844 0.282602 -0.751564 0.711205 -0.294403 -0.112638 0.128854 -0.141157 0.142206 0.560806 -0.762519 0.206967 0.149258 -0.174047 0.527629 0.017940 0.064496 -0.654077 0.224434 0.374304 -0.009824 -0.475117 0.077581 1.056506 -0.290754 0.478381 -0.118117 -0.143206 -0.353340 -0.597836 -0.756842 0.448541 -0.722405 0.058704 0.167241 1.020014 -1.044111 0.705214 -0.191305 -0.143686 0.188801 0.306350 -0.826052 -0.583647 -0.271313 0.282173 0.870881 -0.375601 -0.295391 0.292956 -0.341598 
骨 1.127807 1.170219 0.162590 -0.464633 -0.515458 0.294409 0.315966 0.198083 -1.056205 -1.530041 -0.372298 0.897828 0.658341 -0.621701 0.318936 0.250762 0.193324 -1.045474 -0.369980 -0.570889 0.271934 -1.071497 0.147382 0.523119 -0.268935 -0.092675 -1.234796 -0.881770 1.002997 0.219126 -1.066980 -0.527183 -1.462782 0.150854 0.452067 0.255153 1.210832 0.243368 -0.299336 0.613493 -0.549977 -0.480755 0.022143 0.242139 -1.768470 -0.550376 0.113048 -0.351456 0.081358 0.729477 0.856775 0.289931 -1.389615 0.499332 -0.455786 -0.531318 -0.673776 1.086840 -0.601754 -0.365278 1.208865 0.616069 2.218291 -1.391399 -1.367049 -1.213263 0.241619 0.346538 -0.233268 -0.134338 -0.062942 0.256011 0.616569 0.429398 1.328184 -0.315696 0.309436 0.358213 -0.353193 0.117154 -0.368561 0.667656 -0.000835 -0.974918 -1.131698 0.644127 -1.161595 0.301258 -0.197788 0.661565 -0.313405 -0.399546 -0.034810 0.613702 0.240034 -0.148068 -0.363620 -1.066469 0.950908 0.843530 0.090905 -0.138356 1.295473 -0.290412 -0.130747 0.182312 -0.760581 -0.160641 0.820904 -1.128924 0.641677 -0.618633 -1.130195 0.154888 0.558859 -1.493534 -0.357020 1.634028 -0.052811 -0.959693 -0.422755 -0.121297 0.110445 2.103761 0.178580 0.193302 -0.387715 -0.141695 0.163362 0.300420 0.230510 -0.471661 1.158808 -0.230120 0.352286 0.652746 0.321940 1.117908 0.379142 -0.289451 -0.472660 -0.792445 1.036540 -0.334707 -0.304607 -0.967291 0.556569 -1.442269 -1.297251 0.079887 1.128950 0.503192 0.419990 0.315102 -0.383182 0.967927 0.040673 -0.042226 0.720702 -0.719476 0.276654 0.000738 0.653857 -0.085694 0.045836 -0.395857 0.276106 -0.318144 -0.214238 0.372141 0.886764 1.348539 0.526895 0.722402 1.172810 0.537948 1.025986 0.098256 -0.094983 1.103110 -0.842458 -0.309449 0.030762 1.136889 -0.655331 0.589785 -0.969285 -1.825867 -0.401970 0.756323 0.741854 -0.170239 1.836515 -0.098701 0.148274 0.234714 0.584419 1.084544 0.618313 -0.277556 
山 1.732710 0.205752 0.208928 0.698427 -0.263323 0.502250 0.028354 0.652548 -0.089908 -0.479999 -0.312150 -0.604169 -0.465921 -0.176758 -0.109453 0.621372 -0.049413 0.452725 0.355058 0.877778 0.083383 0.055716 -0.193266 -0.329110 -0.162485 0.868248 1.269951 -0.436712 0.727687 0.258144 -0.032897 -0.508428 0.241388 0.324114 0.550437 0.196953 0.730492 -0.575772 0.309884 -0.385490 -0.074222 -0.195477 -1.037756 -0.151684 0.181997 0.202305 0.773934 -0.032037 0.273144 -0.587658 0.311824 -0.199206 0.429565 0.144424 0.411086 1.463281 0.385614 0.806934 -0.277438 -0.047275 -0.067935 0.335281 -0.075068 0.105667 0.740520 -0.369856 0.379964 -0.446815 -0.419773 -0.407277 0.780208 -0.364688 0.668094 0.160176 0.124814 1.348789 0.632197 0.950732 -0.018663 -0.570504 -0.084182 0.129913 -0.109044 0.922543 -0.559051 0.154576 0.083888 0.018469 0.465353 -0.017287 -0.711861 -0.043261 0.684974 0.009975 -0.045025 -0.192929 0.427259 -0.235303 0.671931 0.834080 0.235317 0.066434 -0.893330 -0.010788 0.187942 0.630812 -0.883653 0.286123 0.548311 -0.059973 0.159450 0.095525 0.855489 0.575095 -0.556846 0.540932 0.571470 -0.413056 -0.623829 0.004231 -0.026148 -0.807276 -0.142583 1.191237 0.605736 -0.591072 -0.460436 -0.459556 -0.227475 1.004446 0.231206 -0.286710 0.634329 -0.137410 -0.446696 0.309932 0.269116 0.115086 0.432101 0.139368 0.057032 0.267846 0.114620 -0.039265 0.309343 -0.551828 -0.336389 0.323427 0.606759 0.200141 -0.249514 0.231728 0.056852 -0.191680 -0.121519 1.219804 -0.728474 0.155295 -0.625773 -1.031955 0.296894 -0.557500 -0.462081 0.474723 0.533480 -0.412247 -0.324346 -0.527602 -0.386588 -0.311790 0.234137 -0.274368 1.224563 0.297709 -0.764011 -1.003875 0.059250 -0.595712 0.044693 0.892991 -0.111159 -0.554308 0.439005 0.487398 0.103608 -0.401540 0.564593 0.103047 -0.313864 0.279907 -0.200135 -0.859340 -0.147842 -0.410978 0.135878 0.103325 -0.365638 0.034441 -0.641654 -0.132945 
黍 0.698216 1.478072 1.076639 -1.231841 0.652272 -0.395900 -0.430455 0.632851 -0.245869 1.262422 -0.867015 0.088087 1.734837 1.427303 -0.323724 -1.388577 0.068012 -0.519021 0.428620 -1.834231 -2.883558 -0.409019 0.486764 -0.786268 1.040148 0.232199 0.069166 0.740194 -1.731007 -0.464610 -1.008377 -1.121212 1.204248 -0.747037 -1.257469 0.056803 0.304861 -1.981663 -1.203643 1.219655 0.101371 -1.295384 1.454483 -0.020342 1.184770 1.007098 0.297984 -0.652620 1.180424 0.077719 -0.409687 -1.071225 -0.320256 -0.686856 0.770104 0.674049 -1.795621 0.624263 -0.856805 -1.343664 0.015385 0.511481 0.736946 0.290450 1.143887 -1.168695 1.251162 0.094243 -0.579731 -0.572739 0.224524 1.025579 0.443617 -0.152987 0.389373 -0.321428 -0.887958 1.080636 -0.435612 0.496150 0.277754 -1.329595 -0.381123 1.269776 -0.514108 0.464940 0.155495 1.660781 0.122657 0.010625 1.796810 -0.469584 0.155265 -1.368341 0.030541 -0.932123 -1.260733 0.501168 1.252477 -0.069280 -0.216582 0.883947 -0.148210 -0.322297 0.987658 1.587060 -0.256630 -1.065208 -1.682705 -0.255072 0.870923 -0.011024 -1.407143 -0.392651 -0.274400 -1.037946 -0.855625 -0.340975 -0.063927 -0.152036 0.130417 -1.851425 -1.925748 0.441416 0.435596 -1.511405 0.722718 -0.369853 0.601384 -0.579217 0.815418 1.414127 0.817051 -0.517806 0.504931 -0.034436 0.450596 -0.786743 0.305348 -1.493437 -1.613820 -1.015791 0.035165 0.200133 -2.106767 0.398109 1.126023 0.928481 0.712181 0.168170 -0.874852 -1.264786 1.039075 1.341057 -0.334555 0.452344 2.741318 1.094071 -0.696253 0.901866 -1.237684 -1.543558 -0.722836 0.195861 -1.066521 0.221306 1.279186 0.691637 -2.332558 0.002856 0.097698 -0.702038 -0.488567 0.228713 -0.277931 0.568114 -1.054106 -0.177831 0.958381 0.456142 -0.145075 -0.616750 -0.800751 -0.613110 0.502602 -0.403379 1.012540 1.504787 -0.325467 -0.670053 0.265766 1.074762 -0.312767 0.409904 0.050904 -0.117901 -0.197330 -0.741449 -0.901976 -0.580114 
田 -0.244374 0.112324 -1.075299 -0.270576 -0.389290 0.492317 -0.000571 -0.317601 0.222224 0.099670 0.234040 -0.645323 -0.000163 -0.647111 -0.094506 0.180555 -0.735272 -0.019774 -0.055752 0.030322 0.265577 0.773378 -0.030124 0.686814 0.427211 0.322081 -1.102194 -0.591126 0.174689 0.325945 -1.164336 1.138842 0.644503 -0.168586 -0.114132 -0.532174 -0.310871 0.030989 -0.315835 0.493028 -0.074057 -0.525946 -0.591543 0.032605 -0.699829 -0.178794 -0.122029 -0.109462 0.499254 0.998307 0.200381 -0.174552 -0.103060 0.851630 0.237769 0.187277 -0.045223 -0.742164 -0.261730 0.014727 0.810082 0.050633 0.337806 0.574033 0.177546 -0.380076 0.271491 0.365899 -0.191875 0.113805 -0.048786 0.463084 0.181466 -0.270357 -0.257644 0.569611 -0.361215 -0.477158 0.573307 -0.937917 -0.323524 0.232245 -0.422983 -0.184164 -0.562036 0.498021 0.046448 0.975292 0.431641 -0.479488 0.548558 0.517489 0.427915 0.086316 0.012664 1.010466 0.273628 -0.477269 -0.469454 0.359844 0.022221 0.457236 -0.182548 0.071019 0.020985 0.773226 0.247829 0.057739 0.249443 -0.262127 0.363827 0.198065 0.737949 -0.034348 -0.413056 -0.199840 0.124022 -0.112321 0.013002 -0.172919 -0.354882 -0.271533 -0.134595 -0.213977 0.217851 0.503741 0.057072 -0.121805 1.391924 0.743646 -0.092410 -0.113413 -0.698306 0.303038 -0.446405 -0.402002 -0.175706 -0.715227 -0.354074 0.641801 -0.333640 0.110660 -0.222370 -0.049393 0.380195 0.709219 -0.742336 -0.549095 0.412483 0.205525 0.234047 -0.395907 0.203619 -0.026805 0.137535 -0.301270 -0.592499 0.411685 0.117530 -0.080974 -0.821865 0.025666 0.014151 -0.439419 0.465003 -0.362736 0.119582 -0.512313 -0.695377 0.552257 -0.278760 0.211861 -0.003690 0.264165 0.173461 -0.702710 -0.384483 0.162874 -0.003328 0.141880 -0.017880 0.261121 -0.354705 -0.519990 -0.366923 0.428040 -0.595091 0.369152 0.067678 0.255242 -0.581198 0.378649 0.524655 -0.062468 0.303113 -0.118075 -0.393255 -0.708269 -0.094270 0.234300 
舛 -0.678171 -0.918105 -0.038952 -1.367124 -0.342729 0.896529 0.285472 -2.346546 0.706008 -0.636238 0.789926 -0.194755 -0.110509 0.356640 -0.172276 0.432568 -1.335650 -0.821779 -0.261784 -1.004151 0.436621 -0.094768 -0.507912 -1.517468 -0.721523 -0.904551 0.122739 0.935194 2.008772 -0.283879 -1.381206 0.298815 -1.116226 -0.911459 -0.693370 0.104726 0.283272 -1.909572 0.517581 -1.311088 0.605640 -0.485116 0.839387 -0.653390 -0.194172 0.754407 1.101713 -0.100647 -0.486660 1.160925 0.352392 0.296093 0.672984 -0.914841 0.648302 -0.565571 -1.161437 0.843738 0.019753 0.623518 -0.072754 -1.671312 0.201786 -0.331612 -0.841874 1.079850 1.008062 0.702078 -1.247334 0.843144 -0.059456 -1.658502 0.698279 -1.063659 1.650017 0.831549 0.596988 -0.229787 -1.894440 -0.555921 -0.042653 -0.965826 0.054302 -0.016901 0.425163 1.101209 0.234941 1.046616 0.502886 1.021536 0.007663 -0.579267 -0.822031 -0.582604 1.585265 -0.902020 -0.994473 0.625628 0.217772 0.661049 1.356996 0.509167 -0.186585 -0.249307 -0.870482 -0.882411 1.375739 0.636781 -0.287268 -0.603253 -0.411995 0.993096 -0.574377 0.011405 -0.212142 0.374707 -0.589702 -0.541597 0.366450 0.685274 -0.326115 0.188682 1.205677 -0.327517 -0.590449 -1.221276 -0.171844 -0.096184 0.924751 1.550594 1.291394 1.008689 -0.812747 -1.479672 -1.551656 0.663830 1.353716 0.738499 -0.943707 -1.553824 0.259396 0.582071 0.772676 -0.044800 0.510223 -1.349209 -1.112159 -1.031183 1.812145 -0.289833 -2.305045 0.138203 -0.598978 -0.255954 0.051253 0.839803 -0.440878 0.223789 -1.465867 -0.475124 -1.250829 1.292857 0.950282 -2.145204 1.469214 -0.229344 -0.622456 -0.146951 -0.827593 0.499782 -0.189887 0.540540 -0.258915 -1.088482 0.267482 0.204439 0.284545 -0.062200 1.408642 -0.584859 0.214162 0.409985 0.418683 0.775019 0.791699 0.920127 0.834967 0.363525 0.350883 0.343376 0.750192 0.043742 0.232884 0.610223 0.810063 -0.434131 -0.777593 -0.066094 0.447649 0.773442 
行 -0.573339 0.133125 -0.001945 -0.310899 -0.390243 -0.371764 -0.252873 -0.545529 0.001098 0.058881 -0.131411 0.084956 0.133832 0.860837 0.103325 0.834772 0.019651 0.017673 0.572674 0.037401 -0.499002 -0.526539 1.064308 -0.106014 0.264593 0.628191 -0.495090 -0.430131 0.370130 1.383836 0.606279 -0.647878 0.481465 -0.504393 -0.050702 -0.303022 0.480965 0.059899 0.118992 -0.248540 -0.751319 -0.246722 0.341948 0.504604 0.759683 -0.027587 0.048341 0.073140 -0.074191 -0.196698 -0.314906 0.473211 -0.321607 0.761587 -0.243229 0.246505 0.082241 -0.344325 0.498442 0.355299 0.699577 -1.049206 -0.033845 -1.070701 -0.865893 -0.978146 0.970310 -0.086047 0.303388 1.058827 -0.184094 0.583176 -0.022188 -0.895639 -0.503316 0.546827 0.679412 -0.018042 0.069861 -0.407949 0.197532 -0.406550 0.224391 -0.784874 -0.319680 0.185144 0.068087 0.973973 -0.021857 0.537829 0.433364 0.295196 0.728349 -0.380522 0.334756 -0.401305 -0.482554 -0.141867 -0.002344 -0.625196 0.262451 -0.187516 0.500279 -0.146020 -0.320933 0.136544 0.624845 0.478723 1.224745 0.718061 -0.348568 0.596697 0.698759 0.699920 0.314038 0.641010 -0.111236 0.562459 -0.004296 1.314599 -0.838455 1.230492 0.122605 0.431312 -0.372152 -0.309198 -0.871277 -0.122473 -0.680409 1.102290 -0.176685 0.765095 -0.727686 -0.672034 -0.360186 -0.010462 -1.192112 -0.228044 -0.371080 0.746792 -0.131251 0.705504 0.852594 -0.344209 0.218201 0.051681 0.651722 0.737378 -0.224773 0.514713 -0.879167 0.965982 -0.208501 0.138690 1.115270 0.024013 0.361062 0.047203 -0.246544 0.558737 -0.106381 -0.057979 0.094640 1.134501 -0.108266 -0.143628 0.839703 -0.672333 0.250948 -0.025816 -0.133164 0.218464 0.765102 -0.353443 0.203139 0.315197 -0.107063 0.700979 0.196702 -0.096846 -1.005834 0.325175 0.152772 -0.138331 0.640577 -0.386891 -0.421042 0.715513 0.258135 -0.194913 -1.375102 -0.896427 0.195144 -0.175503 0.062464 0.117633 -0.308286 -1.241541 -0.363614 -0.626978 
鼠 0.799195 -0.652092 0.231548 0.305926 1.371626 -0.438314 -1.951223 -0.328444 -0.829260 -1.572905 0.068141 1.326001 0.423751 -0.008926 1.473885 -0.547954 -0.198424 -0.430387 -1.010348 1.082146 0.691439 0.480298 1.016794 -0.559825 1.129547 0.753425 0.613331 -1.082420 1.300019 -0.020939 0.827691 -0.130734 -0.906682 1.024664 0.849807 -0.587599 -1.195611 -0.060922 -0.768295 -0.350071 -0.030812 0.385850 -0.223840 -0.161619 -2.486342 -0.241731 -0.856527 0.180209 -0.421466 1.350324 0.077244 -0.261379 0.968079 0.508116 -1.230455 1.736090 1.542733 1.388854 0.208070 1.462030 1.539760 0.127936 1.485200 2.205095 -2.241129 -1.176605 1.765934 1.998212 -0.093369 0.639900 0.063581 -0.406521 -1.609270 -0.810403 0.672779 1.508708 1.143507 -0.035008 -0.245707 -1.140262 1.402923 -0.275347 -2.760900 1.382001 0.437289 0.285208 0.446797 -1.463465 0.867461 -1.192384 0.406526 -0.480127 -0.549792 -0.524231 -0.135701 -0.117034 -0.308754 -0.751188 0.141252 0.320411 0.781238 0.468557 0.836670 0.859929 0.520773 0.660838 0.433379 0.280072 -0.107969 -0.265115 0.956382 -0.696326 -1.242590 1.101199 -0.684310 -1.828901 -2.778921 -0.426592 -0.505871 0.627412 -0.747980 0.301990 -0.627093 0.144960 -1.052740 0.013019 0.756885 -0.031433 2.855742 0.427635 -1.449741 -0.706866 0.786671 0.566351 -1.020459 -0.593468 0.591537 -1.606852 -1.081664 0.306510 1.224900 0.974639 -1.914198 -1.437415 -0.046158 -0.684809 -0.522910 0.654973 1.207644 -1.426933 -0.727381 0.438979 0.187555 0.630926 0.582661 0.150148 -0.310438 1.722990 -0.077025 -0.088574 -0.565166 0.542083 0.210410 0.478574 0.359857 0.943805 0.122025 0.797223 -0.522916 0.394984 0.514511 -0.505749 -0.773391 0.252917 0.586931 0.508144 1.323831 1.311490 -0.006303 -0.425253 0.504666 1.317529 -0.750336 0.101194 -1.783209 1.697248 2.084813 0.598270 -1.300379 0.618924 -0.420446 0.473988 0.503820 0.819767 -1.334032 0.519827 0.245371 -0.052452 -0.494308 -0.478325 
石 0.470636 0.500505 -0.129300 -0.499504 0.474059 0.228555 -0.052584 0.507158 -0.807483 -0.260137 -0.773570 0.519575 -0.136576 -0.409668 -0.434943 -0.536308 -1.133529 0.169686 -0.091407 0.062534 0.128985 -0.695756 0.260994 0.093211 0.456518 -0.326240 0.766052 -0.962761 0.437768 -0.477162 0.510097 -0.715971 0.140733 0.341362 -0.930958 -1.125031 0.629905 0.047702 0.642413 0.354841 0.731934 -0.536178 -0.729596 -0.019803 -0.386813 -0.684179 0.468355 -0.462285 0.127637 0.160760 -0.451102 0.193615 -0.021954 -0.034892 0.740810 -0.165545 0.098494 -0.060873 0.621357 0.343102 0.621287 -0.371106 0.172567 -0.389145 0.401496 -0.724708 0.580434 -0.193776 0.397273 -0.041504 -0.394178 0.693327 0.115641 0.843557 0.122233 0.176584 -0.459699 0.485624 1.023074 -0.562478 0.179539 0.148139 0.711205 -0.590883 0.202163 0.078248 -0.216361 0.199407 -0.922787 0.099731 1.051064 0.821883 0.072664 -1.534695 -0.081770 0.119955 0.244777 -0.666574 -0.458404 -0.040637 0.198095 -0.584365 0.503291 -0.424269 0.399002 -1.187325 -0.053513 -0.694322 -0.210862 -0.081242 -0.183755 0.583393 -0.117759 0.171242 -0.014404 -1.050964 -0.172270 -0.151498 -0.805100 0.433193 0.355047 0.271118 0.367210 -0.537953 0.089514 -0.133440 -0.040682 -0.167897 -0.457111 -0.316907 -0.436380 0.474873 0.139573 0.548191 0.455090 -0.043906 -0.041347 0.191739 -0.067767 0.270525 0.439731 0.241061 0.137324 -0.815355 -0.331737 -0.014686 -0.776159 0.473152 -0.212146 0.458725 -0.235018 -0.244689 -0.694308 0.102473 -0.958339 -0.388020 -0.103500 -0.620365 -0.039651 -0.491125 0.159048 -0.460516 -0.087550 0.143337 1.177755 -0.149436 -0.206355 -0.734450 0.497462 -0.636479 -0.238043 0.238874 -0.422738 0.646212 -0.383984 -0.019915 1.439691 -0.368713 0.069243 0.157626 0.435611 -0.552388 -0.167046 0.841669 0.024808 0.713692 -0.801658 -0.051553 0.295975 0.267643 -0.116871 -0.409621 0.429184 0.303544 0.331162 0.461823 0.294811 0.215394 0.078082 0.474874 
羊 -0.396417 0.107375 -0.396667 -0.250323 -0.255511 -0.453636 -0.714526 -0.181795 0.733298 -1.019122 -0.165171 1.448465 -0.399542 -0.301248 -1.167673 -0.845924 -0.527351 -0.777958 -0.096745 -0.278360 0.236882 0.251053 0.042617 0.372294 -0.379923 -0.146509 -0.951981 0.274606 0.131770 0.324602 -0.661186 -0.174346 -0.869740 0.396045 -1.044786 0.026959 -0.122070 -0.051735 -0.133263 -0.516857 0.414385 0.529527 -0.173087 0.759494 -0.532001 -0.783076 -0.943259 0.027290 -0.135604 0.518091 -0.908840 -0.551830 0.677158 -0.235239 0.307625 0.808828 0.057509 -0.106245 0.303732 0.506794 0.618451 -0.302146 0.280895 -0.124946 -0.195453 0.151318 0.126689 0.530297 0.093696 -0.890702 1.209984 0.556514 -0.309382 -0.292729 -0.314704 0.105941 0.946288 -0.727852 0.440029 -0.246160 -0.149640 0.493466 0.204777 -0.164653 -0.371555 -0.201204 0.331586 -0.140842 -0.347415 0.171590 1.489379 0.458064 0.451596 -0.155601 -0.403123 -0.090602 0.511608 0.998530 0.011119 0.186636 -0.845467 0.432974 0.130048 -0.878625 0.648259 -0.160735 -0.298639 -0.785453 -0.350088 -0.871239 0.284190 1.444318 1.001109 -0.887850 -0.535890 0.609325 -0.069436 0.270829 -0.027729 0.326654 0.399779 0.225276 -0.924216 1.082568 -1.519441 -1.057964 -0.493163 -0.225267 -0.364130 0.693575 0.214793 -0.009083 0.048088 0.307262 -1.021191 -1.007828 0.274783 -0.556826 -1.182834 -1.587306 0.247021 0.346188 0.236938 0.200522 -0.530631 -0.710255 -0.285705 -0.317673 0.817046 0.682694 0.225484 0.400133 1.001929 -0.432588 0.359442 0.718604 1.336932 -0.120052 0.371624 -0.201645 -1.103588 -0.078650 0.534495 1.050655 0.337781 -0.288597 0.038858 0.339848 0.355506 -1.054207 0.295652 0.788059 -0.315467 0.850864 -0.084347 0.649723 0.201468 -1.285047 0.893101 -0.011849 0.072153 -0.651920 0.230389 0.267949 0.643549 0.760342 -0.277690 -0.162278 -1.275478 0.829254 0.946291 0.296903 0.205872 0.544887 -1.195683 0.288626 -0.987812 -0.837118 -0.598318 0.203849 
丿 0.194982 0.122993 0.940532 0.353024 -0.026742 0.445800 0.404810 0.304788 -0.305923 -0.327436 -0.090169 -0.121481 -0.305097 0.794746 -0.099188 0.523917 -0.405059 -0.156014 0.446823 -0.208367 -0.186064 0.367196 0.252290 -0.329174 0.475741 0.287560 0.198631 -0.340096 -0.064716 0.416566 -0.507989 0.144851 0.726723 0.044234 0.079674 -0.095285 -0.366831 0.141217 0.167870 -0.150015 -0.204579 0.506731 0.883529 -0.218240 -0.096144 0.361282 0.324120 -0.219222 0.023564 0.554740 0.653420 -0.242031 0.027799 0.163888 0.520591 -0.181638 -0.612932 0.580669 0.408750 1.164282 -0.314941 -0.489793 0.036674 0.385421 -0.211416 0.003105 -0.273794 -0.013459 -0.053996 -0.098072 0.646617 -0.598994 -0.389310 -0.742535 0.817776 0.088285 -0.212532 -0.833015 0.183431 0.236463 -0.030075 -0.325472 -0.509635 0.046730 0.455319 0.050136 -0.101925 0.286852 0.560390 0.197219 0.396261 -0.122032 0.087961 -0.158936 -0.214572 -0.305132 -0.142447 -0.089273 -0.039698 -0.187708 0.336167 0.340142 -0.352354 -0.067275 0.290885 -0.210308 -0.193127 -0.350537 0.217232 -0.541864 -0.846193 -0.659253 0.147189 0.207446 -0.028287 -0.230916 -0.275329 0.827067 0.135830 0.115292 0.006443 0.018840 -0.074647 0.499465 -0.253479 0.251780 0.806746 -0.166543 0.601996 0.272087 -0.060983 0.674709 0.271499 -0.159038 -0.543007 0.364008 0.187844 -0.473001 -0.387706 -0.301839 0.353405 0.643131 0.128980 -0.080189 -0.129946 -0.076445 -0.507846 0.494981 0.689405 0.467957 -0.465084 -0.916083 0.340018 -0.260217 -0.127662 -0.045037 -0.862792 0.184505 -0.367743 0.152224 0.040382 0.147345 -0.509686 -0.726980 -0.451383 0.482549 0.310996 0.117444 0.696725 -0.043756 0.028146 0.344010 -0.018115 0.447083 0.362404 -0.395751 -0.600994 -0.193834 0.173067 -0.041783 -0.908878 -0.085664 0.009450 0.759133 -0.057883 -0.038268 0.243145 0.432226 -0.327930 0.350616 0.444906 -0.069250 0.135498 0.173910 -0.385622 0.305956 -0.174231 0.079033 0.433674 0.832916 
丨 0.551553 -0.065032 -0.568179 0.038471 0.268036 -0.490338 0.115161 0.108874 0.441118 -0.418677 0.150326 -0.089300 0.027797 -0.065114 -0.338358 0.252171 -0.220515 0.456508 -0.035377 0.211768 0.574885 -0.225943 0.551524 0.022163 -0.535874 -0.117846 -0.461519 0.207058 0.196622 -0.178403 -0.676764 -0.231941 -0.375536 0.327305 0.105591 0.234120 -0.667681 -0.406360 -0.467413 0.372777 0.278375 -0.071119 -0.210286 0.078260 0.118781 0.122911 0.193890 -0.391118 -0.208447 0.336419 0.353790 -0.054700 -0.176526 0.063200 -0.143271 -0.179592 0.169115 0.017652 -0.145474 -0.465131 0.070426 0.226664 -0.131213 -0.040818 -0.079709 -0.058735 -0.006832 -0.547141 -0.306175 -0.133310 0.225020 -0.596688 0.843437 -0.632752 -0.327060 -0.310101 0.450101 -0.570526 0.427509 0.330076 0.649340 0.490606 -0.187013 -0.610154 -0.643130 -0.093564 -0.569979 0.427337 -0.499257 0.276915 0.157549 -0.138179 0.505283 0.391481 0.485403 0.173323 -0.178832 -0.758115 -0.179086 0.330289 0.771330 -0.174697 -0.126724 0.048286 -0.099847 -0.459091 -0.401512 -0.365155 0.173605 0.024613 -0.459109 0.032994 0.332805 0.073539 -0.262988 -0.174706 -0.693765 -0.265140 0.163039 -0.010306 0.362505 0.730746 0.102620 -0.024770 -0.040094 0.031504 0.154663 -0.313928 0.330593 -0.021472 -0.048555 0.367975 0.473962 -0.367539 -0.304580 -0.500620 0.044037 -0.460374 0.166343 -0.058491 0.049118 0.250967 0.152587 -0.605884 0.169342 -0.214705 0.300461 0.229861 0.132679 0.002481 -0.025325 0.511406 -0.038605 -0.200217 0.695134 -0.351094 0.390022 -0.835826 -0.498789 -0.121879 0.300137 -0.234455 0.441798 0.254048 -0.477598 0.397214 -0.007184 0.120115 -0.340132 -0.202342 0.110507 -0.500470 -0.193644 0.150114 -0.995189 -0.282878 0.083784 -0.364600 -0.780549 0.020850 0.106937 -0.467535 0.049483 0.096942 0.163667 0.408686 -0.110090 -0.342397 0.486036 0.502841 -0.052047 0.254416 -0.008561 -0.061105 0.000311 0.899551 -0.396965 -0.358192 0.470584 -0.287834 
子 0.755693 -0.406495 -0.117834 -0.061549 -0.290808 -0.002940 0.235801 -0.034979 -0.341842 0.110286 -0.011794 -0.685455 0.312858 -0.223114 -0.018893 -0.367892 0.440584 -0.157391 -0.508346 0.082942 -0.499010 -0.704032 0.172835 -0.862803 -0.253321 -0.698338 -0.259662 -0.268216 0.706647 -0.763757 -0.392452 0.254006 0.641084 0.255210 -0.530907 -0.650839 0.084586 -0.367175 -0.429401 0.238516 0.013695 0.484106 -0.287097 -0.056803 0.225693 -0.200833 0.316406 -0.035011 0.888632 0.568618 0.415981 0.379435 -0.500858 -0.292871 -0.524910 0.064271 -0.353497 -0.511786 0.153021 0.484672 0.655999 -0.850197 0.399584 -0.657864 -0.116177 -0.039362 0.411666 0.331288 0.306481 -0.436183 0.468941 -0.453057 0.293205 0.088767 -0.577528 0.102164 0.055002 0.767663 -0.362495 0.410399 0.204773 -0.169941 0.099420 0.029330 0.188784 -0.631135 0.195746 -0.461334 -0.325457 -0.395321 0.177722 -0.336644 -0.490123 0.214644 -0.240423 0.224506 -0.274892 0.478399 -1.150722 -0.341434 -0.203657 0.143881 -0.764737 -0.340276 0.644911 -0.050632 0.514211 -0.032753 -0.176702 -0.437281 -0.593481 -0.385600 -0.375224 0.097264 1.319523 0.006454 -0.096351 -0.069800 0.489661 0.043156 0.455259 0.243886 -0.094634 0.643858 0.296226 0.190478 -0.360241 -0.481435 0.284990 0.780616 1.264538 0.209042 0.256262 0.178973 0.071893 0.756921 0.028382 -0.741549 0.719243 0.390693 -0.571148 0.052377 -0.065394 -0.499349 0.151696 0.129008 0.084231 -0.192248 -0.097911 -0.113219 0.023311 0.512014 -0.641754 -0.125597 -0.264948 0.073067 -0.170445 -0.240556 0.470724 -0.697655 -0.227877 -0.128466 -0.671394 0.313466 -0.130076 0.533515 -0.442794 -0.154357 -0.112508 0.115743 0.591049 0.241166 -0.422810 0.202953 0.213609 0.995081 0.440071 -0.021964 0.135994 -0.880397 0.105954 -0.543553 0.733242 0.429924 -0.086421 0.537384 0.741281 -0.116964 0.110939 -0.243884 -0.383118 0.146621 0.137847 0.114376 -0.551251 0.350416 0.051762 -0.311573 -0.634068 0.425850 
大 -0.255120 0.438820 -0.006137 0.189916 0.478054 0.068282 0.191711 0.403936 0.425274 -0.725472 -0.252077 -0.216504 -0.222177 0.375666 -0.336311 -0.677534 0.090858 -0.103687 0.190903 0.344879 -0.422130 -0.049145 -0.229990 0.250282 -0.103049 -0.299281 0.305358 -0.571729 -0.123129 -0.221583 -0.262832 0.542051 0.494182 -0.102841 -0.202722 0.374269 0.274611 -0.163079 0.079159 0.215395 -0.236247 -0.355163 0.184287 0.416661 -0.004588 0.287917 0.193444 -0.056882 0.235122 -0.040577 -0.042154 0.326870 0.175338 0.287471 0.373628 0.169859 -0.279500 0.714473 -0.104336 -0.448656 -0.289517 0.144069 -0.434279 -0.260223 -0.274344 0.570164 0.178448 0.454654 -0.258084 0.273691 -0.065785 -0.456781 0.467706 -0.254091 -0.100839 0.567714 -0.411206 -0.357893 0.328213 -0.364035 -0.385666 -0.360826 -0.040007 0.489352 0.002201 -0.403579 -0.442966 0.082826 -0.709287 -0.063661 0.350598 -0.469182 -0.021369 0.163235 -0.468449 0.033538 0.023333 -0.285120 -0.122378 0.324289 0.251137 0.143645 0.465521 -0.754548 -0.019263 -0.024247 -0.261789 0.310573 0.311054 -0.048605 0.443744 -0.066116 0.408839 -0.385569 -0.045686 -0.217345 0.307878 0.134580 0.106691 -0.030544 -0.044075 -0.192945 -0.124886 -0.200827 -0.234934 -0.270895 0.062723 0.612583 0.171741 0.219737 0.550971 0.719851 -0.339172 -0.344651 -0.662539 -0.541712 -0.285386 -0.207707 0.207396 0.366293 0.194060 0.063593 0.115255 -0.464074 -0.639422 -0.559416 -0.707009 -0.237427 0.271406 -0.296381 0.025253 0.005396 0.212150 0.145973 0.346718 -0.247919 0.294185 0.498929 -0.227443 -0.119951 0.517678 0.322655 -0.386732 -0.078387 -0.618545 -0.404166 0.100872 -0.968681 0.333416 -0.231562 0.004132 0.623893 0.368342 -0.753127 -0.106348 0.049443 -0.316117 -0.252400 -0.469234 -0.051103 0.600346 -0.000364 0.965127 -0.211548 0.080363 0.276294 -0.030064 -0.164999 0.431567 -0.418357 -0.369229 -0.514727 -0.000756 0.274441 -0.757426 -0.454385 0.608280 0.540408 -0.510648 -0.032198 
血 -0.991585 0.881039 -0.173606 -0.079071 1.263292 0.957448 -0.108215 -0.174368 -0.942259 -1.546002 0.696269 0.811770 0.646934 0.959606 0.302254 0.111789 2.035988 -0.801621 1.007071 0.979972 0.703235 -0.362655 0.659662 -0.605422 -0.066841 0.688194 -0.535347 1.010711 0.069479 -1.403914 -0.372085 0.492060 -0.450137 0.435840 0.663796 1.498135 0.826262 0.645261 -0.607777 0.652146 -0.349219 -2.791207 0.694097 -0.371806 -0.559147 -2.761683 -0.851405 -0.327178 -0.633090 -0.007780 -0.009374 -0.444617 0.545251 -0.661495 -0.938057 1.907949 -0.908676 0.275207 1.596970 -0.072462 1.041509 -0.698549 0.822911 0.472215 -1.138273 -0.721290 0.398270 1.893750 0.079081 -0.409561 0.627294 0.175021 1.180315 -0.669536 1.164450 1.786239 1.024952 0.270475 -2.452130 1.269840 0.881485 0.859588 -0.028021 -1.392974 -0.888632 1.209268 -0.863791 0.153230 -0.510156 0.297061 1.401079 0.723285 0.131445 0.640520 -0.153346 0.216912 1.770657 -0.077415 0.577291 0.267199 0.092023 1.395703 0.271263 -0.519881 -0.017341 1.206647 1.056520 -0.496903 0.406367 1.126045 0.726398 0.855579 -0.396469 0.040363 1.623503 -0.382572 0.327492 1.178242 -0.228668 -0.586276 -1.678841 -0.899601 -1.133369 -0.453953 0.335224 1.037222 -1.533891 0.466055 0.420860 -0.311967 0.675599 0.733908 -0.364145 0.816135 -0.081748 1.551574 2.344628 -0.641914 -0.690567 -0.546649 -1.528779 -0.633328 1.347345 0.681018 0.309852 -1.323630 0.856127 0.088184 -0.511697 -0.572276 0.452532 -1.304294 2.695545 -0.764593 -0.841339 -0.449860 0.009703 0.820175 -0.788511 -0.454845 -0.707642 -0.301842 1.632286 0.143463 -1.072760 1.162986 -2.227564 -0.595923 0.829335 0.799416 1.190975 0.548156 0.613785 -0.873484 -0.996649 -1.124515 2.125193 0.315519 0.427080 0.170476 -0.584750 0.778975 0.831347 -1.070225 -1.137167 -0.548145 0.841855 -1.275619 0.551530 1.301811 -0.559093 -0.290880 0.192446 -0.140521 0.144317 1.307711 0.563549 -0.581508 0.843667 0.652335 
